accession,d0,d1,d2,d3,d4,d5,d6,d7,d8,d9,d10,d11,d12,d13,d14,d15,d16,d17,d18,d19,d20,d21,d22,d23,d24,d25,d26,d27,d28,d29,d30,d31,d32,d33,d34,d35,d36,d37,d38,d39,d40,d41,d42,d43,d44,d45,d46,d47,d48,d49,d50,d51,d52,d53,d54,d55,d56,d57,d58,d59,d60,d61,d62,d63,d64,d65,d66,d67,d68,d69,d70,d71,d72,d73,d74,d75,d76,d77,d78,d79,d80,d81,d82,d83,d84,d85,d86,d87,d88,d89,d90,d91,d92,d93,d94,d95,d96,d97,d98,d99,d100,d101,d102,d103,d104,d105,d106,d107,d108,d109,d110,d111,d112,d113,d114,d115,d116,d117,d118,d119,d120,d121,d122,d123,d124,d125,d126,d127,d128,d129,d130,d131,d132,d133,d134,d135,d136,d137,d138,d139,d140,d141,d142,d143,d144,d145,d146,d147,d148,d149,d150,d151,d152,d153,d154,d155,d156,d157,d158,d159,d160,d161,d162,d163,d164,d165,d166,d167,d168,d169,d170,d171,d172,d173,d174,d175,d176,d177,d178,d179,d180,d181,d182,d183,d184,d185,d186,d187,d188,d189,d190,d191,d192,d193,d194,d195,d196,d197,d198,d199,d200,d201,d202,d203,d204,d205,d206,d207,d208,d209,d210,d211,d212,d213,d214,d215,d216,d217,d218,d219,d220,d221,d222,d223,d224,d225,d226,d227,d228,d229,d230,d231,d232,d233,d234,d235,d236,d237,d238,d239,d240,d241,d242,d243,d244,d245,d246,d247,d248,d249,d250,d251,d252,d253,d254,d255,d256,d257,d258,d259,d260,d261,d262,d263,d264,d265,d266,d267,d268,d269,d270,d271,d272,d273,d274,d275,d276,d277,d278,d279,d280,d281,d282,d283,d284,d285,d286,d287,d288,d289,d290,d291,d292,d293,d294,d295,d296,d297,d298,d299,d300,d301,d302,d303,d304,d305,d306,d307,d308,d309,d310,d311,d312,d313,d314,d315,d316,d317,d318,d319,d320,d321,d322,d323,d324,d325,d326,d327,d328,d329,d330,d331,d332,d333,d334,d335,d336,d337,d338,d339,d340,d341,d342,d343,d344,d345,d346,d347,d348,d349,d350,d351,d352,d353,d354,d355,d356,d357,d358,d359,d360,d361,d362,d363,d364,d365,d366,d367,d368,d369,d370,d371,d372,d373,d374,d375,d376,d377,d378,d379,d380,d381,d382,d383,d384,d385,d386,d387,d388,d389,d390,d391,d392,d393,d394,d395,d396,d397,d398,d399,d400,d401,d402,d403,d404,d405,d406,d407,d408,d409,d410,d411,d412,d413,d414,d415,d416,d417,d418,d419,d420,d421,d422,d423,d424,d425,d426,d427,d428,d429,d430,d431,d432,d433,d434,d435,d436,d437,d438,d439,d440,d441,d442,d443,d444,d445,d446,d447,d448,d449,d450,d451,d452,d453,d454,d455,d456,d457,d458,d459,d460,d461,d462,d463,d464,d465,d466,d467,d468,d469,d470,d471,d472,d473,d474,d475,d476,d477,d478,d479,d480,d481,d482,d483,d484,d485,d486,d487,d488,d489,d490,d491,d492,d493,d494,d495,d496,d497,d498,d499,d500,d501,d502,d503,d504,d505,d506,d507,d508,d509,d510,d511,d512,d513,d514,d515,d516,d517,d518,d519,d520,d521,d522,d523,d524,d525,d526,d527,d528,d529,d530,d531,d532,d533,d534,d535,d536,d537,d538,d539,d540,d541,d542,d543,d544,d545,d546,d547,d548,d549,d550,d551,d552,d553,d554,d555,d556,d557,d558,d559,d560,d561,d562,d563,d564,d565,d566,d567,d568,d569,d570,d571,d572,d573,d574,d575,d576,d577,d578,d579,d580,d581,d582,d583,d584,d585,d586,d587,d588,d589,d590,d591,d592,d593,d594,d595,d596,d597,d598,d599,d600,d601,d602,d603,d604,d605,d606,d607,d608,d609,d610,d611,d612,d613,d614,d615,d616,d617,d618,d619,d620,d621,d622,d623,d624,d625,d626,d627,d628,d629,d630,d631,d632,d633,d634,d635,d636,d637,d638,d639,d640,d641,d642,d643,d644,d645,d646,d647,d648,d649,d650,d651,d652,d653,d654,d655,d656,d657,d658,d659,d660,d661,d662,d663,d664,d665,d666,d667,d668,d669,d670,d671,d672,d673,d674,d675,d676,d677,d678,d679,d680,d681,d682,d683,d684,d685,d686,d687,d688,d689,d690,d691,d692,d693,d694,d695,d696,d697,d698,d699,d700,d701,d702,d703,d704,d705,d706,d707,d708,d709,d710,d711,d712,d713,d714,d715,d716,d717,d718,d719,d720,d721,d722,d723,d724,d725,d726,d727,d728,d729,d730,d731,d732,d733,d734,d735,d736,d737,d738,d739,d740,d741,d742,d743,d744,d745,d746,d747,d748,d749,d750,d751,d752,d753,d754,d755,d756,d757,d758,d759,d760,d761,d762,d763,d764,d765,d766,d767,d768,d769,d770,d771,d772,d773,d774,d775,d776,d777,d778,d779,d780,d781,d782,d783,d784,d785,d786,d787,d788,d789,d790,d791,d792,d793,d794,d795,d796,d797,d798,d799,d800,d801,d802,d803,d804,d805,d806,d807,d808,d809,d810,d811,d812,d813,d814,d815,d816,d817,d818,d819,d820,d821,d822,d823,d824,d825,d826,d827,d828,d829,d830,d831,d832,d833,d834,d835,d836,d837,d838,d839,d840,d841,d842,d843,d844,d845,d846,d847,d848,d849,d850,d851,d852,d853,d854,d855,d856,d857,d858,d859,d860,d861,d862,d863,d864,d865,d866,d867,d868,d869,d870,d871,d872,d873,d874,d875,d876,d877,d878,d879,d880,d881,d882,d883,d884,d885,d886,d887,d888,d889,d890,d891,d892,d893,d894,d895,d896,d897,d898,d899,d900,d901,d902,d903,d904,d905,d906,d907,d908,d909,d910,d911,d912,d913,d914,d915,d916,d917,d918,d919,d920,d921,d922,d923,d924,d925,d926,d927,d928,d929,d930,d931,d932,d933,d934,d935,d936,d937,d938,d939,d940,d941,d942,d943,d944,d945,d946,d947,d948,d949,d950,d951,d952,d953,d954,d955,d956,d957,d958,d959,d960,d961,d962,d963,d964,d965,d966,d967,d968,d969,d970,d971,d972,d973,d974,d975,d976,d977,d978,d979,d980,d981,d982,d983,d984,d985,d986,d987,d988,d989,d990,d991,d992,d993,d994,d995,d996,d997,d998,d999,d1000,d1001,d1002,d1003,d1004,d1005,d1006,d1007,d1008,d1009,d1010,d1011,d1012,d1013,d1014,d1015,d1016,d1017,d1018,d1019,d1020,d1021,d1022,d1023,d1024,d1025,d1026,d1027,d1028,d1029,d1030,d1031,d1032,d1033,d1034,d1035,d1036,d1037,d1038,d1039,d1040,d1041,d1042,d1043,d1044,d1045,d1046,d1047,d1048,d1049,d1050,d1051,d1052,d1053,d1054,d1055,d1056,d1057,d1058,d1059,d1060,d1061,d1062,d1063,d1064,d1065,d1066,d1067,d1068,d1069,d1070,d1071,d1072,d1073,d1074,d1075,d1076,d1077,d1078,d1079,d1080,d1081,d1082,d1083,d1084,d1085,d1086,d1087,d1088,d1089,d1090,d1091,d1092,d1093,d1094,d1095,d1096,d1097,d1098,d1099,d1100,d1101,d1102,d1103,d1104,d1105,d1106,d1107,d1108,d1109,d1110,d1111,d1112,d1113,d1114,d1115,d1116,d1117,d1118,d1119,d1120,d1121,d1122,d1123,d1124,d1125,d1126,d1127,d1128,d1129,d1130,d1131,d1132,d1133,d1134,d1135,d1136,d1137,d1138,d1139,d1140,d1141,d1142,d1143,d1144,d1145,d1146,d1147,d1148,d1149,d1150,d1151,d1152,d1153,d1154,d1155,d1156,d1157,d1158,d1159,d1160,d1161,d1162,d1163,d1164,d1165,d1166,d1167,d1168,d1169,d1170,d1171,d1172,d1173,d1174,d1175,d1176,d1177,d1178,d1179,d1180,d1181,d1182,d1183,d1184,d1185,d1186,d1187,d1188,d1189,d1190,d1191,d1192,d1193,d1194,d1195,d1196,d1197,d1198,d1199,d1200,d1201,d1202,d1203,d1204,d1205,d1206,d1207,d1208,d1209,d1210,d1211,d1212,d1213,d1214,d1215,d1216,d1217,d1218,d1219,d1220,d1221,d1222,d1223,d1224,d1225,d1226,d1227,d1228,d1229,d1230,d1231,d1232,d1233,d1234,d1235,d1236,d1237,d1238,d1239,d1240,d1241,d1242,d1243,d1244,d1245,d1246,d1247,d1248,d1249,d1250,d1251,d1252,d1253,d1254,d1255,d1256,d1257,d1258,d1259,d1260,d1261,d1262,d1263,d1264,d1265,d1266,d1267,d1268,d1269,d1270,d1271,d1272,d1273,d1274,d1275,d1276,d1277,d1278,d1279
lcl|KR029087.1_prot_AKF12497.1_1,-0.029806443,-0.015467195,-0.05886954,-0.011547654,-0.11578402,0.010877167,-0.0011339606,0.011987958,-0.015258619,-0.014624828,0.005604091,0.010805388,0.046123076,0.09086276,-0.037257694,0.14052825,0.009438899,0.019934695,-0.03835991,0.01811575,0.05829394,0.08159712,0.0079994565,0.06866292,-0.03906148,0.058383953,0.03729719,0.051931452,0.031571466,-0.14372732,0.02195675,0.019550245,0.009813055,-0.11570811,-0.01092118,0.006796511,-0.035106186,-0.047848724,-0.09095064,-0.07734827,0.07826139,0.0004924867,0.04064953,-0.04171091,-0.016247042,-0.0311868,0.06629674,0.053999472,0.06844425,-0.04790002,0.0036001978,-0.043241024,-0.012808777,0.007543581,-0.10540975,-0.020163134,0.014083037,0.042019147,-0.014139892,-0.05607279,0.003633255,-0.04580837,-0.043043178,0.07883328,0.02455495,0.03312514,-0.012158446,-0.11413107,0.014344888,0.01160312,-0.04244524,-0.18209451,-0.006609967,-0.03428383,0.08661868,0.0016785704,0.04446919,0.043943655,0.069622055,-0.0020784072,-0.013306458,-0.061987888,0.0591214,0.060809057,0.01327647,-0.06277684,0.012834933,0.04048575,-0.006485906,-0.0012128906,0.021764098,0.025483152,-0.0007894096,-0.041052867,-0.062263813,-0.009007227,0.00044978608,0.027195197,0.023843724,0.11988102,-0.041287716,0.0053231833,0.0397355,0.0016118041,-0.04297564,-0.05898959,-0.023975974,0.09391484,-0.035198968,-0.03930889,0.06704095,0.002883457,-0.0488959,-0.014702158,0.06077284,0.031225424,-0.0020912022,-0.022340875,-0.0923997,-0.0011231008,0.03047445,-0.014120511,0.018233994,-0.030540353,-0.0051500024,-0.0020920725,0.040967174,0.006885893,-0.046919916,-0.053670775,0.056946468,0.009528745,-0.0752899,0.055750016,0.05977279,0.066793755,0.01005684,0.075890034,0.0058259903,0.0082829865,-0.0254434,-0.023155153,0.014050667,0.030089809,-0.0030623581,0.085749365,-0.027252614,0.019418724,-0.045259155,0.043837056,-0.027312327,0.007594709,0.023556871,-0.004492456,0.05922084,-0.046123907,0.07877742,0.0231797,-0.009819944,0.058716986,-0.047226638,0.012061381,0.0099706445,-0.08395297,0.07567859,-0.010739246,0.040083967,-0.022164246,0.118817605,0.006409171,-0.019601218,0.018766703,-0.008668829,-0.007774356,0.050195683,0.0020513327,-0.038504783,0.05716144,0.10614505,-0.010483951,0.029476348,-0.08278956,0.054444708,0.07344065,-0.00870731,-0.02260517,-0.055868644,-0.042261403,-0.010614624,0.0021859743,0.011685565,0.10135862,-0.038156174,0.0009679312,0.14907622,0.066945665,-0.051220614,0.06409197,-0.013175666,0.012227303,0.046901513,0.006038802,-0.022540068,0.027954418,0.017807445,-0.014645381,0.006016444,-0.08376161,-0.16059864,-0.045423966,0.08508736,-0.018190686,-0.017601838,-0.043818846,-0.09385587,-0.03067879,0.10539521,0.037066687,0.028212188,-0.014396726,0.08045736,-0.0020367096,-0.0139490785,-0.008286664,0.06404768,-0.0721158,0.07019252,-0.039513163,-0.026650218,-0.050690934,0.008597014,-0.0359038,-0.08413287,0.012887981,-3.049734,0.02339709,0.079699755,0.070316255,0.026308738,-0.12523365,-0.013416226,0.01995904,0.103548385,0.023790872,-0.03585879,-0.0050525605,-0.011030215,0.10472549,0.040103402,-0.0046825563,-0.059800155,-0.03985669,0.006473854,-0.1041557,0.006210755,-0.0039854017,-0.024019267,0.020570133,-0.065166585,0.0067838673,0.12276392,-0.009587902,0.030414542,0.06719833,-0.060720164,-0.042654485,-0.078801624,-0.023726352,-0.0662437,0.06479662,-0.015146322,0.067625925,0.059772283,-0.032291844,0.0008420609,0.0500683,-0.069371566,-0.040905032,-0.002113327,-0.040757168,0.025425626,-0.024213847,0.038258594,-0.021384487,-0.044518113,-0.14998427,0.052931286,0.0774722,0.05971307,0.023836363,0.028366387,0.056284938,-0.08178386,-0.03415207,-0.056396957,0.0213713,0.042813554,0.022930393,0.07227863,0.0061101215,0.03020086,0.0021904102,-0.045134492,-0.026244557,-0.03793835,0.098702915,-0.054311864,0.0064872582,0.02189206,0.09486527,-0.029426873,0.07079589,-0.033283073,0.0049385726,0.021942606,0.00069362746,0.024436932,-0.044999387,-0.028409222,-0.0090072835,0.0051245936,0.039164193,-0.104245424,0.027949309,-0.037939984,-0.012214597,0.12740794,0.019875186,-0.09266838,0.008084535,-0.02429133,-0.038254198,0.0122853825,-0.0024300131,-0.019270644,0.060065374,0.052705575,0.022042913,0.03500305,-0.02404803,0.031061906,-0.04315487,-0.06351474,0.08565309,0.032174665,-0.043120533,-0.016237244,0.021482725,0.051367722,-0.002413095,0.0024280841,-0.07104047,0.056210935,-0.021324363,-0.054096594,-0.013444513,0.10779582,0.060415376,0.010885248,0.003678524,-0.024859149,0.11393889,-0.044474512,-0.07033769,0.056479994,0.053521972,0.024847453,-0.01056724,-0.0037392746,0.008670927,0.022437247,-0.0060710213,-0.022925874,-0.06386442,0.0069830758,0.04307489,-0.0024788997,0.002979746,0.18461132,0.013370072,-0.029480578,-0.16663328,0.0020763644,0.055134896,0.12699023,-0.036282316,-0.019424742,0.015916424,0.0028189716,-0.046714067,-0.008445341,0.03777727,-0.015355831,0.084551364,-0.009843667,0.005899481,0.120167,0.015038616,-0.001524914,-0.058161803,0.047312398,-0.03685813,-0.0031127594,-0.03122859,0.038894918,0.046060108,0.044024907,0.009179126,0.028282048,-0.072495066,-0.07810085,0.04804426,0.000764029,0.011938531,-0.044393692,-0.0032340265,0.09676017,0.0856758,-0.06952054,0.084491916,-0.01604065,0.024545755,0.028450998,0.01906521,0.056757048,-0.0017839457,0.04419518,0.020187048,0.04263931,-0.029002583,0.0051316405,0.0002935339,0.071110554,-0.026359778,0.026896112,0.0005731169,0.02727684,0.033119384,-0.030731162,-0.075716704,0.05235732,-0.017004339,0.13005137,-0.12114174,0.077820756,-0.040410776,0.060185444,-0.021058332,-0.024992045,0.010465305,0.066804215,-0.032532856,0.06821727,-0.022855055,-0.02290943,-0.011291755,-0.038923755,0.017734936,0.051003136,0.09836695,-0.0607601,-0.033030115,-0.09580695,0.040665418,0.11060965,-0.06722889,0.082667515,0.032388233,0.1363676,0.064656496,-0.0015474618,0.036206387,-0.017782273,0.029681342,0.08452047,-0.06937068,0.008078647,-0.028856564,0.035145547,0.015510048,-0.02317673,0.015481514,0.03506869,0.0915463,0.0010140256,-0.04556811,0.04365592,0.05543055,0.015517984,0.09708666,-0.013053138,0.019049603,0.03253544,-0.07167595,-0.08930847,0.021351688,-0.033485677,0.01743931,-0.027313396,0.04581064,0.0072531914,-0.057749238,-0.011516523,-0.029292358,-0.08046462,0.12032487,-0.013423549,0.076550916,0.033239394,0.05811412,0.021402003,-0.024500532,0.055461273,-0.04734439,-0.008413029,0.011060214,0.02521147,-0.04365356,0.03365579,-0.0032486252,0.01709165,-0.07637511,0.023305673,0.006712614,0.03928097,-0.035120387,0.029039815,-0.03491277,0.010887108,0.054202132,-0.0128328055,0.068682104,0.07937094,0.030795729,0.021791153,0.042265553,0.01640173,-0.027541144,-0.08525686,-0.006135692,-0.071744494,0.022633078,-0.017230963,0.044394877,-0.037042454,-0.027329251,-0.079410136,-0.014570176,0.07253161,-0.07748326,-0.0022506723,-0.025986038,-0.076553345,0.058021687,0.07914716,-0.10924639,-0.13226205,-0.020902384,-0.031290855,-0.005739091,-0.0077388203,-0.06383024,0.019105062,-0.073826715,0.14180775,-0.049348794,-0.089452684,-0.007267501,-0.09044761,0.024525503,0.017423365,0.116959624,0.0062410133,0.03945659,-0.023122769,0.18482932,-0.015528547,0.0227634,-0.02953375,0.08297813,-0.035466608,-0.032936633,0.0042902166,0.17949493,-0.06353066,0.07396329,0.037969213,-0.050545543,0.028459515,0.073658325,0.007684806,-0.061232448,0.00092980237,-0.030940123,0.09318886,0.009638047,-0.041834462,0.02914663,0.11480597,-0.1426347,-0.09549934,0.049562477,0.0021693914,-0.013257538,0.07702533,0.09019707,0.00017447316,-0.02338722,-0.04983056,-0.05358954,0.03364503,0.056180857,-0.06853358,-0.013939394,0.067680374,0.06787869,0.006861737,-0.0007881124,-0.0062158857,0.08568152,0.0032083788,0.03690332,-0.04892008,0.0073374156,0.044055153,0.12005693,0.03929831,0.011863621,0.063679576,0.015936347,0.017576193,-0.04317595,0.04529678,-0.07817466,0.045393653,0.0133362375,0.034649212,0.0070528635,-0.05077927,-0.09107549,-0.01880622,0.02834568,0.064990565,0.103729635,0.055130128,0.048007213,0.0525556,0.00068337825,-0.08906939,-0.073703274,0.0064952327,0.07858773,0.026909387,-0.004258972,-0.067581624,-0.06046951,0.093605265,0.012515561,0.026183752,0.01834023,0.0075712046,0.004681789,0.0075041084,0.018528875,-0.03517116,0.012089463,-0.028224241,-0.07814759,-0.00998769,0.08807549,0.0039981776,-0.038752746,0.07526524,-0.0052877027,0.028988548,0.0033148034,-0.03600733,0.01845428,-0.023687799,-0.003345097,-0.019281376,-0.03352052,0.02342198,0.0954788,0.04657433,0.0025352698,-0.019787686,0.013888148,0.011203493,-0.02462378,0.12336895,-0.045727562,-0.03780528,-0.01995681,0.030592494,-0.017710479,-0.088072106,-0.01247908,0.04246513,0.04163088,0.047845736,0.07247921,0.05861845,0.047158685,0.056356266,0.085470386,0.0016885595,-0.004320691,0.012025365,0.100948475,0.03280282,-0.082909234,-0.06346045,-0.083052024,0.0044535813,-0.008486853,-0.010977755,0.01152363,-0.08059529,0.036806904,0.033858005,-0.020126043,0.08935473,0.052140158,-0.043680884,0.07069302,0.011955972,0.0033840789,-0.06703182,-0.078192264,0.037873786,-0.0076734466,0.06505702,-0.016346224,0.053779133,-0.0032168566,0.38947442,-0.0547444,-0.07297101,-0.015374322,0.014948554,0.07364787,0.00470557,0.035198804,-0.027790071,-0.06707665,-0.046170793,0.015590302,0.12448178,0.0820884,0.043953698,0.14141855,0.0041821525,0.02536467,-0.06514956,-0.061185107,-0.026261928,-0.037495192,-0.03375499,-0.032745555,-0.10553268,0.063522205,-0.0024460368,-0.024758471,-0.017540455,0.11748754,-0.04170745,-0.07861256,-0.05461793,0.019068396,0.015573233,-0.053455044,0.03911101,0.12131995,-0.010674165,0.0046370933,-0.041656356,-0.03863917,-0.028751254,-0.070668064,-0.027012886,-0.035510365,0.034157693,-0.01509612,0.013418908,-0.02796529,0.2562798,-0.05077116,0.0053201057,-0.0037211645,0.054758657,-2.0775671e-05,-0.016937591,0.118985586,-0.026675211,0.061618518,0.008397389,-0.029628774,-0.02811559,0.027756497,-0.01118466,-0.03274602,-0.09574465,-0.057415765,0.013301169,0.09793168,-0.056906663,0.022123534,-0.01724802,-0.033782583,-0.0023257877,-0.059705365,0.03141831,-0.013481058,0.0388465,0.007425155,0.054592468,-0.04125889,0.097820185,-0.012512302,0.086129926,0.049765754,-0.0551386,-0.0030163992,0.012885894,-0.040900134,0.066313505,-0.07902819,0.015986605,0.028639963,0.074101575,0.025157014,-0.009549526,0.11271774,0.035355292,-0.05016428,0.12488653,-0.010669566,-0.010502537,-0.09482642,-0.06678875,0.015087259,-0.008688796,0.025352683,0.04574287,-0.0324416,-0.00043063605,0.019516673,-0.031093147,0.09830373,0.07567447,0.014034857,0.0311434,-0.06256965,-0.06265261,-0.016220186,0.1057294,0.04937486,-0.016692987,0.054271284,0.0099309245,0.0028789819,0.08612313,-0.037205834,-0.053912356,0.07038689,0.10684057,0.014180051,-0.03810659,0.08794041,0.023855414,-0.09285256,0.20380145,0.006725208,0.030580165,-0.06697119,-0.00846199,0.010410377,-0.019966375,-0.07070373,0.03114661,-0.080839515,0.05055249,0.07705104,0.012750401,-0.032718673,-0.06729189,-0.03946514,-0.054129075,0.017134774,-0.018044036,-0.052741677,0.018085064,0.026520077,0.08338337,0.056886133,-0.004292842,-0.062827334,0.0480635,0.07734745,0.025337037,0.019729216,-0.015492622,0.0074394643,-0.010941714,0.006986926,-0.07908107,-0.004930064,-0.05158523,-0.0013810028,0.005269216,-0.0070512807,0.009555132,-0.06505651,0.042283844,0.034734197,0.008805746,0.008852207,-0.016587077,-0.0033125025,0.044517007,-0.06397092,0.0710719,0.08035442,-0.03532444,0.01990561,0.07782219,0.0049842447,-0.018173756,0.052115984,0.06312648,-0.055906013,-0.063684754,-0.10322882,-0.034496874,-0.0296652,0.05623983,0.09951079,0.03076053,-0.02395016,0.052111868,-0.033236988,0.124660194,-0.025103703,0.022890044,-0.030527582,0.024258746,0.030289052,-0.03656374,0.09445138,0.08992882,-0.026271906,0.0060990225,0.04320997,-0.0024760028,0.019002892,-0.0024862906,-0.012402008,0.009374613,0.037817385,0.049789723,0.034539662,-0.031485017,-0.011529599,0.015405332,0.029866345,-0.020650784,0.051630042,0.028904902,0.064940415,-0.043734316,0.055827003,0.056936014,-0.042606074,0.08212228,-0.03979724,-0.086913526,-0.018995972,0.05951941,-0.028380074,-0.033618644,0.024117414,-0.01663495,-0.01958593,0.025229184,-0.061418626,0.025868516,0.009716018,-0.003270147,0.07851602,-0.0025158145,-0.09594619,0.040745553,0.05006735,-0.029237526,-0.00329642,0.05634725,0.097324096,-0.033379488,0.052212104,-0.06837252,-0.07867529,-0.02426135,0.012876463,-0.042284243,-0.02232135,-0.052454952,-0.0027202033,-0.02979953,0.01772568,0.09179695,-0.017246012,0.0716212,0.007244472,0.003749074,-0.0226576,-0.026588952,0.042647123,-0.049985927,0.0587308,-0.047809843,0.059818983,0.004896164,0.06500429,0.123291925,-0.04819839,-0.16579553,-0.046219267,0.04732165,-0.008139526,0.0125398515,-0.03381447,0.006521276,0.15059078,-0.07971953,0.0109421145,0.08915498,0.006315657,0.051125966,0.022774937,-0.09056637,-0.022493348,-0.03797918,0.06302934,0.07428428,-0.013966464,-0.026972855,0.11779563,0.047254328,0.0076233214,0.019249454,0.0047555254,0.0049786177,0.036254823,-0.04113707,0.007667304,-0.021599846,0.0048694042,-0.0064352765,0.006563488,-0.028627813,-0.0014489164,0.010288533,0.028817074,-0.066669516,-0.038698796,0.014895402,0.097801775,-0.070459425,-0.010687447,0.012837593,-0.00464542,-0.024971845,0.056362044,0.097082585,-0.030846708,0.020683149,-0.005391169,-0.04874552,0.08552713,-0.07748235,0.02695393,0.034253936,-0.00013895976,0.06824117,0.024189157,-0.034637,0.062347025,-0.004652029,0.1020491,-0.10100861,0.046546597,0.009028794,-0.023236936,-0.02235911,0.101647615,0.0028783537,-0.05928851,0.06785093,0.02900212,-0.047385987,-0.030510947,-0.0048025567,-0.07051445,-0.017929725,-0.02932941,0.043576684,0.027048817,-0.022604939,-0.03851055,-0.04134137,0.010490629,-0.022301022,-0.08737806,0.03040892,0.04512549,0.083166845,0.012544674,-0.035055112,-0.0417179,0.09965129,-0.012977292,0.016078861,-0.048188835,-0.009360191,-0.022620142,-0.052927766,0.043223906,-0.031188918,-0.118324235,-0.003909742,-0.003083196,0.05771461,0.08082861,-0.01278521,-0.021873182,0.0030301355,-0.013157236,0.090559505,0.08062759,0.070006914,0.08979637,-0.08101966,0.05759084,-0.04274427,0.17115828,0.015102414,-0.045933265,0.041174162,-0.005668332,0.011122546,-0.015889395,0.054958515,0.038677655,-0.10202525,0.0011833003,-0.018894512,0.04759351,-0.04937869,0.093472846,-7.976831,-0.01746622,-0.03592339,-0.118023545,0.047756135,-0.045349848,-0.028291892,0.028742699,-0.070270754,-0.053478073,-0.0031365973,-0.020598646,-0.037607834,0.04411263,-0.090806946,0.023962883,-0.017176421,0.046010662,0.019639136,0.07035075,0.033052962,0.007432316,-0.033717364,0.05581819,-0.016957391,0.013392779,-0.0271079,-0.0012929046,0.06040276,0.14232147,0.040945284,0.018446775,0.05575162,0.0997105,0.030063067,0.13701314,0.066043176,-0.056675777,0.1590539,0.0111814365,0.05393721,-0.0321807,-0.0020395825,0.073653504,0.077037945,-0.0048676142,0.027186627,0.0069755693,0.0623562,-0.099064805,0.07498384,0.043161374,0.024480173,-0.0065117185,0.0019961402,-0.006803713,0.035732888,0.14302738,-0.008833891,0.01710239,0.090266526,0.040090516,-0.0016220959,0.080723256,0.044559952,0.07953584,0.001307859,-0.06931983,-0.027855074,0.028760757,0.0044401255,0.09226769,-0.0014009903,0.10393179,0.06765584,0.11221381,0.024838526,0.0030099482,0.14775863,0.039222743,-0.08741872,0.041569114,0.00330918,-0.03592736,0.013923239,0.023847627,0.027302809,0.026873866,-0.035818707,0.17421056,0.078997694,-0.011379295,-0.05862167,0.020442883,-0.0041916957,-0.006351101,-0.048014704,0.00036704855,0.018672774,0.10309918,0.028629966,0.07526905,-0.030902304,0.059051216,-0.03260288,0.012803506,0.027116325,0.0462818,-0.025449142,0.0020935698,0.02474647,-0.006622759,0.02165201,0.023187961,-0.035581935,0.06375787,0.071394645,-0.07835767,0.060773585,-0.05606727
lcl|KR029087.1_prot_AKF12496.1_2,-0.02319876,-0.025537157,-0.055497173,-0.039270934,-0.09002694,-0.042281322,0.018876525,-0.09404301,-0.024843229,0.0030644422,-0.0012223944,0.01814754,0.18469515,0.11305623,-0.03874902,0.11231321,0.021735266,0.02417907,0.029230906,-0.00942438,0.045026064,0.020096919,0.01594175,0.04798423,0.012603893,0.119260244,0.0440768,0.063838474,-0.004159146,-0.17394109,0.026341517,-0.011070024,0.031783648,-0.05684175,-0.0017097167,0.05029058,-0.0071781995,-0.0123691065,-0.11956985,-0.049007256,-0.025662446,-0.016368758,-0.01448958,-0.044070344,-0.034244798,-0.08943064,0.07562465,0.041854303,0.02114292,-0.08840639,-0.06959154,-0.03245572,0.023292655,0.0052262973,-0.050958466,-0.03008064,0.043005347,-0.013334555,0.019699832,-0.013316425,-0.13295819,0.0068931426,-0.04558221,0.08461565,0.09443806,0.016787294,0.010795921,-0.052816577,0.0030803357,-0.032828376,-0.073568985,-0.14149973,0.01623454,-0.0073464527,0.050914347,0.023228511,-0.014697951,0.1830225,0.055521894,0.009616774,-0.0046638455,-0.04971608,-0.020064343,0.06782692,0.046429127,-0.038265873,0.08654239,0.08862186,-0.01072389,-0.0010199052,0.026844883,0.08426041,-0.005928385,-0.012935154,-0.08640803,-0.06956436,-0.034394465,0.01252655,0.07033271,0.106367715,-0.0019727068,-0.011590627,-0.008333152,-0.032960303,-0.04861664,-0.05605871,-0.015859729,0.051790714,-0.029917348,-0.022021908,0.07399383,-0.0016467036,-0.01801415,0.009001194,0.06842752,0.038390316,-0.0016081445,0.0064929277,-0.021661032,0.0508956,-0.036850493,0.028955508,0.048689295,-0.028379705,0.017648343,0.050342124,0.06405613,-0.021061596,0.03443111,-0.01098093,0.022450706,-0.074490376,-0.05366369,0.013470831,-0.024999414,0.009749868,0.06855599,0.14269125,0.06581677,0.04426046,0.022097657,-0.015035431,0.06220913,0.06482303,0.0034362387,0.068143114,0.0013508872,0.045080688,-0.017880673,0.0055219014,-0.018852457,-0.10693983,0.0024252352,0.014290301,-0.044697948,-0.09691041,0.11635595,0.062370338,-0.024848402,0.023060596,-0.09110944,0.058339737,0.09762572,-0.14825672,0.021425618,0.05293359,-0.0209567,-0.012129415,0.102525234,0.0015238199,-0.017227897,-0.023420364,0.10011881,-0.026105484,-0.024141094,0.08124233,0.0038228657,0.067800604,0.08982784,-0.00050597696,0.019199971,-0.017498884,-0.008768085,0.05248535,0.05408714,-0.013455348,-0.028845204,-0.027193185,-0.017916556,-0.08555528,0.09310236,0.0027285255,0.012078619,-0.09485855,0.05019788,0.08277048,-0.06364533,0.037542593,-0.09355225,-0.008968624,0.07985621,0.03079619,-0.067009434,0.015503774,-0.0048685786,-0.010893684,-0.047688328,-0.06081954,-0.14460337,-0.054239083,0.10128693,0.03774342,-0.04477378,-0.026253877,-0.12365764,0.022404013,0.077014014,0.017140131,0.051849723,-0.007069594,-0.010383288,-0.04108406,0.023332981,-0.008826783,-0.017319549,-0.056209583,-0.0315997,-0.0078020524,-0.02267269,0.05283016,0.093804546,0.070171684,-0.060304657,0.0028598958,-1.7982842,0.029132275,0.089886956,0.05171686,-0.010586781,-0.07282377,-0.017456349,0.039870493,0.0804142,0.10674041,-0.034773216,0.05679517,-0.0067281323,0.097098,0.054755922,0.01872676,-0.05899239,0.035096876,-0.00821048,0.026907397,-0.0046492917,0.01788188,0.002925289,0.12233407,0.015974874,-0.06994607,0.048388086,0.059973914,-0.04122437,0.08130621,-0.08532674,-0.06466935,-0.07433502,-0.03396305,-0.022500359,0.013871868,0.073206015,0.12138987,-0.0031981585,0.038154926,-0.044612773,0.019954043,-0.051268317,-0.029036216,0.027081957,-0.0074492395,0.037853245,0.05386272,-0.0064596203,0.026692666,-0.03559062,-0.023499653,0.006597326,0.06945036,0.14708184,0.07192196,0.07592856,0.0025129337,-0.10519728,-0.054266732,-0.066516794,0.05218164,-0.0073475223,0.051907156,0.018119687,-0.009119579,0.101875514,0.02134489,-0.06705921,0.11810866,-0.039235443,0.085983135,-0.12809995,0.012920345,0.030656556,-0.027381474,-0.042006314,-0.011949089,-0.03149414,-0.030341702,0.0023926385,-0.0049012736,0.03963337,-0.050848328,-0.14609593,0.06371922,-0.07536807,-0.0026752802,0.020719433,0.074803054,-0.075244695,0.0151577955,0.101963565,0.009914439,-0.13058484,0.061364777,-0.0026861879,-0.020954493,-0.017024752,0.02625494,-0.09654631,0.0017855254,0.11283228,0.012206747,0.05869722,-0.036254797,0.041991614,0.00822564,-0.06995705,0.05979171,-0.038880583,0.0069158846,-0.040382,0.04814689,0.06647936,-0.0036266516,-0.022491477,-0.013664273,0.008812618,0.041906502,0.027073022,-0.02962409,-0.00903095,-0.0052714325,0.055501647,-0.034772262,-0.047924004,0.033607803,-0.05726069,-0.036252625,0.08391637,-0.0034980834,0.019640809,0.0033705002,-0.010443271,-0.027763149,0.12644687,-0.031716604,-0.019426957,-0.00023674505,0.06315218,0.06425802,-0.011951933,0.08299358,0.15451539,0.0025280917,-0.02727224,-0.11369231,-0.005251282,0.058504645,-0.008881439,-0.012317774,-0.0037033437,-0.0020514908,0.066868894,-0.10947721,0.031533826,-0.012944592,0.083614014,0.03393307,0.046114583,-0.004929763,0.030312492,-0.010643411,0.000727352,0.076456614,-0.06593773,-0.03807933,-0.12555254,0.13417187,0.055226,0.02025365,0.018163629,0.02208796,-0.0005882469,-0.08067572,-0.01135793,-0.04149826,-0.023397204,-0.008573935,-0.022644704,-0.026690755,0.0688639,0.08362847,-0.018360777,0.02499385,-0.0494662,0.056518815,-0.01724098,0.015235142,0.07424507,-0.025544561,0.010321423,0.003990305,0.04162561,-0.0004713576,0.07827323,0.01728127,0.06598923,-0.017281415,0.03948585,-0.055197965,0.0122134285,-0.056651667,-0.03236105,-0.12580515,0.0947944,0.035543326,0.0430742,-0.09856515,0.057954907,-0.058806185,0.05263421,0.02486007,-0.0130749345,0.01730255,0.059020102,-0.091481306,0.017482901,-0.027297394,0.028462492,-0.030172044,0.025444638,0.010572014,0.059383724,0.116793476,-0.047227047,0.050831184,-0.030724293,0.020744745,0.028237775,-0.071652904,0.09107567,0.040435843,0.10072894,0.05076845,-0.11101096,0.042662796,0.02756699,0.008702422,0.030088594,-0.12043591,0.02168509,0.0020599547,-0.02272441,-0.06941428,-0.01219045,-0.027771795,-0.02044203,0.02930977,0.05053573,-0.022460049,-0.025777675,-0.05797252,0.007977504,-0.084614486,-0.06254405,-0.0315387,-0.04094646,-0.028690958,-0.012124175,0.02614227,0.023407102,0.00810023,-0.0042508156,0.0033560714,-0.029888015,-0.06783269,-0.015900003,-0.06309184,-0.1261661,-0.004882359,-0.034070678,0.10742016,0.016772429,0.07525039,0.024297522,-0.051572494,-0.0062419195,-0.0742246,-0.016021421,0.0033064655,0.025637902,-0.023955883,0.008806317,-0.07560943,0.06502984,-0.10767754,0.04515544,0.015283978,-0.04873207,-0.064227976,0.05506649,-0.03685565,0.031310894,-0.01836518,-0.0019517046,0.07717698,0.04437966,-0.0542902,-0.032249026,0.080333866,0.00084114674,0.007892551,-0.07966019,0.00022017617,-0.083090566,-0.009702857,-0.001932843,0.05762478,-0.045762677,-0.035201967,-0.026629407,-0.025039146,0.10062989,-0.10730972,0.044912998,0.021792835,-0.16094884,0.05688651,0.07472059,-0.07778629,-0.097549535,0.0015529327,-0.015006633,0.057091065,0.07451802,0.053891204,0.026471063,-0.05566207,0.14217669,-0.06427189,-0.014264351,0.06300531,-0.007387922,-0.0078185,0.022361327,0.13599345,0.07092225,-0.019336719,0.05576386,0.2130594,-0.04390245,0.005290962,-0.017375173,0.038791165,-0.052673347,0.005740266,0.010532639,0.28665674,-0.0060238736,-0.013531529,-0.033989046,0.041252773,-0.0060087075,0.03745064,-0.047461927,-0.06412195,0.0073991236,-0.033505775,0.097622484,-0.009309726,-0.064914934,-0.004499798,0.09986209,-0.05991878,-0.0064079827,0.006406776,-0.07232172,0.0049883514,0.0047495603,0.06708293,-0.039676763,-0.03424475,-0.000102383405,-0.0032181772,-0.016092306,0.15239431,-0.048336767,-0.065188,0.043339703,0.09351886,0.0703563,0.0054113423,-0.008614898,0.053719506,0.038254377,0.06905899,-0.06493607,0.022687899,0.04970713,0.18518138,0.018588452,-0.017037712,0.09069787,0.041181594,-0.021884501,-0.03145779,0.035960283,-0.046384327,-0.0005433234,0.06682488,-0.020609545,0.098247916,-0.04996528,-0.04478048,0.011806703,-0.014028433,0.10883637,0.040146794,0.06495149,0.038828168,0.030754117,-0.00053321564,-0.057409614,-0.12530322,0.029639319,0.11305301,0.027084906,0.04253213,-0.03813099,-0.023545349,0.09528417,-0.03122407,0.025001073,0.09894444,0.032814424,-0.049275268,0.013688717,0.015115591,0.062114708,0.00875509,-0.024623238,-0.0467784,-0.039979026,0.05095252,0.09453196,-0.0026695319,0.005988728,0.026013395,0.02507748,-0.00943612,-0.0033969383,0.056514733,-0.00566242,0.0043031606,0.027315065,-0.017306827,0.020706547,0.19786137,0.025923938,-0.0045308415,0.0038542612,0.018622516,-0.038322885,0.011416056,0.044467933,-0.007854601,-0.022812309,-0.06492304,0.057526495,0.031018823,0.0053619826,-0.102603234,0.095503025,-0.14042692,0.08960685,0.20384686,0.15500452,-0.004630483,0.03239267,0.064162634,0.055712055,0.010872138,0.02074356,0.08644293,-0.017601902,-0.050418187,-0.023132775,-0.030646894,0.04988313,-0.04943507,-0.019091783,0.083680995,-0.07597903,0.055026982,-0.06530769,-0.00985607,0.09209744,0.04849433,-0.06457489,0.020723531,-0.022624439,0.04103124,0.024792427,0.0007652705,0.10894445,0.009619794,0.120458566,0.013756254,-0.0046228454,0.08025384,0.29310933,-0.060981736,-0.085815966,-0.019174358,-0.0033142276,0.05620893,-0.026363408,-0.012582006,-0.013826114,-0.017036753,-0.0592026,-0.020631328,0.091164745,0.07360531,-0.010426014,0.109115764,-0.013352152,-0.01802971,-0.10534089,-0.07104723,0.07522141,-0.019093646,0.012815521,-0.04906913,-0.14565554,0.102274805,0.04141736,-0.040115204,-0.003258199,0.026245907,-0.063216954,-0.03598421,-0.019785361,0.07587083,0.019461825,-0.0011135673,-0.024099298,0.08928386,0.0010031268,0.08699433,0.022296842,0.00890307,-0.014465725,-0.07577407,-0.100544274,-0.01833038,0.00049401226,-0.09628646,-0.08053725,-0.037654925,0.19383597,-0.0026156143,-0.0019635234,0.03866317,0.14392936,0.05783375,-0.022360783,0.13108346,-0.076357916,-0.051049117,0.065824464,-0.03404856,-0.01851661,0.044371303,0.008884033,0.008633857,-0.051516574,-0.0030497191,-0.06237969,0.066845566,0.059201594,-0.029441848,-0.05450447,-0.025209017,-0.008778221,-0.10074523,0.09549997,-0.047666024,-0.012159203,0.036641393,0.0080865,-0.075723395,0.10883454,0.0031515795,0.06588132,0.104924195,-0.008962245,-0.022976084,-0.04134998,-0.006454451,0.05848311,-0.1417766,-0.012927432,0.014206035,0.08825734,0.035756856,-0.05421435,0.04797071,0.036698796,0.009417602,0.13307777,-0.048507206,0.034480043,-0.039410856,-0.1110909,-0.055937044,-0.024360772,0.038154483,-0.05406267,-0.02247847,-0.04028408,0.003939704,0.013650955,-0.0422933,0.0673901,-0.02247214,0.046938173,-0.051051266,0.03668086,-0.07658156,0.05573734,0.060707156,-0.016054986,-0.03527556,0.028012434,-0.050698373,0.044217758,-0.05598993,-0.09646012,0.002462615,0.06768738,0.0075340318,-0.07173836,0.079631336,-0.020433486,0.052499976,0.10824349,-0.015471166,0.007805372,-0.0069779367,0.032594915,-0.038616102,0.016865885,-0.03732801,0.1526743,-0.034412347,0.15488553,0.05600208,0.027337018,-0.054133166,-0.061583936,-0.120836034,-0.0479794,0.0052060816,-0.022077046,-0.08753555,0.0027793762,0.11764667,0.012326136,0.015019511,0.011339257,-0.04281342,-0.015615955,0.07130341,-0.011072122,-0.008055425,0.03197107,0.02267535,0.056212753,0.064198785,-0.07169642,-0.07030002,-0.033993248,-0.014474977,-0.024045363,0.0027913568,-0.0542116,-0.09359722,0.022510212,0.07344324,0.00016312023,-0.04034222,-0.049587186,0.03036536,0.090823814,-0.057007704,0.00035789603,0.10466559,0.022596806,-0.06830173,0.063331105,0.022564517,-0.07908359,0.025382236,0.05769878,-0.0043960446,-0.08031023,-0.09624412,-0.06236593,-0.07099154,0.11089768,0.15839255,-0.017785715,0.028464293,-0.025663774,-0.002636975,0.11175233,-0.019915467,0.037753507,-0.08332206,-0.00076879066,0.06522216,-0.051295035,-0.017805606,0.047856208,-0.014548175,0.060987424,-0.018791819,-0.023653585,-0.054791078,-0.04432276,-0.009651875,-0.061539922,0.030547662,0.15797362,0.012605424,-0.070015684,-0.024579462,0.06416714,-0.05017927,-0.0031343654,-0.062510006,0.03718759,0.079945385,-0.06403751,0.07724667,0.06834853,-0.033181433,0.04815953,0.005048552,-0.042219467,-0.049939375,0.013099295,-0.04293288,-0.0792342,-0.017764434,-0.025001105,-0.010922049,0.07798736,-0.048922714,0.02680168,-0.014654137,-0.09528805,0.032920346,0.022819456,-0.08294686,0.10141775,-0.006160434,-0.05676074,0.01675084,0.051914558,-0.046473954,-0.009366144,0.02586945,-0.055452242,-0.05616413,0.043897893,0.002592722,-0.024492966,-0.06285489,0.031644404,0.015663013,-0.026879836,-0.07097798,0.057947244,-0.0047755064,0.028111126,0.050189,-0.01497803,-0.016652886,-0.06397577,0.050678052,-0.037287373,0.08620031,-0.045101676,0.06808083,0.026870193,0.03579784,0.0941188,-0.040376894,-0.08727942,-0.03702741,0.011978511,-0.035500005,-0.03719478,-0.038320143,0.010519655,0.09006588,-0.08153953,0.081515275,0.026195955,0.014733697,0.05935474,0.059988964,-0.084821045,0.075129025,-0.0055968454,0.060573544,0.06639998,0.0014361576,-0.019998677,0.0386338,0.074357696,0.02447319,-0.044567294,-0.06111967,0.03577729,-0.07374246,-0.01938274,0.070277296,0.04607235,0.06634704,0.038076837,-0.11139186,-0.055576753,0.081020616,0.05067754,-0.009039258,-0.032523196,-0.028240308,-0.026689678,0.095223896,0.056947514,-0.0030391815,0.0103193475,-0.0068141706,0.03234273,-0.015215099,-0.0082749985,-0.007281621,-0.0330113,0.12142778,-0.02708619,0.014140817,-0.029393801,-0.019777374,-0.07436229,-0.051982354,0.0688771,-0.036147293,0.005652766,0.065834284,0.120676264,0.017154448,-0.08994574,0.009708392,0.06032957,-0.017004227,-0.007843273,0.18682998,-0.076955244,-0.046268642,0.035969112,0.048981342,-0.00319726,0.019087749,0.02338803,-0.08325916,-0.03628726,-0.006105621,0.03459458,0.042827606,-0.046831083,-0.05318782,-0.018040013,0.0641016,-0.06391709,-0.025321368,0.047238745,0.062252145,0.025636489,0.0043556644,-0.09768104,-0.058648888,0.1288764,0.04455218,-0.048927158,-0.12279523,0.0045751594,-0.059171144,-0.07974738,-0.059242018,-0.006780861,-0.105265714,-0.0045688218,-0.08654571,0.057270326,0.032226615,-0.056037825,-0.07751279,0.0012451014,-0.042297605,0.07445816,0.07378719,0.051487308,0.083051495,-0.03133979,0.039281305,-0.06648857,0.16618003,0.065087825,-0.027748702,0.035328034,0.03112249,0.024623932,-0.052857865,-0.026225928,0.042609233,-0.08046994,-0.0075651086,-0.05819501,-0.08563114,-0.07160833,0.022261327,-6.8479457,-0.1250829,0.039534524,-0.04670776,-0.013428101,-0.003975682,0.001695571,0.02257942,-0.014129056,-0.044465013,0.036157504,-0.031607,-0.0020172836,0.022074636,-0.033841055,0.055588394,-0.00944474,0.01980347,-0.03372662,0.01983897,-0.040586032,0.0041775005,-0.06243232,0.03592732,-0.014848236,-0.025723893,-0.03151677,0.084745616,0.04002128,0.10363183,-0.015859744,0.03938332,-0.071763374,0.0931283,0.039295938,0.15416902,0.06338819,-0.06930906,0.12571852,0.054629523,0.0476522,-0.048066698,-0.063454114,0.106194146,0.08306099,0.030383185,0.013447354,-0.038206287,-0.05460659,0.0009506811,0.09500267,-0.01440538,0.017286792,-0.06652345,0.07820535,-0.029665548,0.02751173,0.026752649,0.052635875,0.065448195,0.037255142,0.02092877,-0.055215795,-0.0064292303,-0.015001545,0.029687073,-0.044463307,-0.08387383,-0.06796926,-0.03558096,0.0070250332,-0.040829368,0.0521553,0.09756166,0.07328581,0.100994475,0.06344301,-0.05192103,0.07363886,0.07438456,-0.13547713,0.0067242826,-0.047137056,-0.007618854,0.03489812,-0.030187018,0.055541504,0.06625826,-0.012707813,0.27041063,0.15591063,0.06384027,-0.061807986,0.030304465,-0.057724267,0.048470426,0.005352251,-0.03290277,-0.019085253,0.10076069,-0.0026969367,0.07179886,0.08813114,0.1114168,0.00396629,0.0054663615,0.07606629,0.018924177,-0.0072078127,0.033115905,0.01856887,-0.08972084,0.020854393,-0.04106712,0.01458041,0.034539454,0.10666723,-0.12590285,0.054980222,0.11089039
lcl|KR029087.1_prot_AKF12495.1_3,-0.004587582,-0.009245112,0.048613712,-0.02119949,-0.049812015,0.07212788,0.0012640235,0.023389908,-0.015900651,-0.13642167,0.054609258,0.03721203,0.13721897,0.03488518,-0.060760647,0.0938733,-0.02262687,0.030164776,-0.08404938,-0.03248638,-0.006979036,-0.065387435,0.056185864,0.11599282,-0.06606317,0.098267764,0.018040456,0.09928267,-0.022903802,-0.06655813,0.028933845,-0.20644327,-0.019877082,-0.07892176,-0.033068135,0.12642126,0.021607695,-0.010028231,-0.0063155787,-0.00295039,0.0075421906,-0.07437782,-0.025492586,0.06459892,0.018058226,-0.062410656,0.01241128,0.04212715,0.013962035,-0.016931117,-0.047048192,-0.04330556,-0.025403025,0.017055942,-0.087852046,-0.024968902,0.09684091,0.07075209,-0.10555168,-0.02476522,-0.011970602,0.03078469,-0.09442767,0.049986657,0.08221309,-0.0014791643,-0.009965508,-0.040510304,-0.0431045,-0.02574052,0.018176395,-0.18127224,0.039227683,0.024703968,-0.022764107,0.048768055,0.0011804635,0.022827635,0.09465389,-0.06832449,-0.025191896,0.035056714,0.0012837163,-0.01740339,0.021968361,0.02094734,-0.036310405,-0.015389798,0.0074613364,-0.0127506815,0.06607676,0.031447854,-0.045684397,-0.041183308,-0.05833738,0.065567434,0.005932403,-0.0036354947,0.062617235,0.031338412,0.0007266133,0.032410093,0.053940456,-0.098094635,-0.043436676,0.003559088,0.027309025,0.05596852,-0.019893786,-0.024148686,0.06990377,0.060706973,0.020216316,0.027989313,0.14741613,0.0069015287,-0.018793123,-0.06345021,-0.12408952,0.041407604,-0.098118365,0.036501195,-0.04746332,0.010711483,-0.04246152,0.06125531,-0.034696918,-0.021139575,-0.028499525,-0.04403712,0.0014269981,0.06452091,-0.0074895537,-0.03863005,0.03998205,0.06655671,-0.01022324,0.096279584,-0.027279716,0.06621137,-0.044277966,0.061793484,-0.020454904,-0.019996256,0.017168237,0.061821982,-0.024727132,-0.02322343,-0.013592164,-0.07932699,0.004443975,-0.06945724,0.035599586,-0.052485105,0.016698586,-0.0836303,-0.01764128,0.026558403,0.10463793,0.0006178842,0.058458086,0.0070035304,-0.06891327,-0.024731297,-0.03744624,0.0050898236,0.13847691,-0.054258563,0.13101818,-0.027653994,0.050654706,0.016447762,0.061880916,0.012347437,0.030618204,0.041343015,-0.04836933,0.10230604,0.22700515,0.023603197,-0.0035306404,-0.02672225,0.12464041,0.13686395,-0.045600284,-0.08370447,-0.076119676,0.024204282,0.06460249,-0.05735995,-0.010567064,0.07881097,-0.03283896,-0.05596059,0.08575887,0.11422752,-0.034982137,0.08361087,-0.012373736,-0.011709084,0.013613478,-0.018493539,0.0041783773,0.001039162,0.01113635,-0.045560516,-0.11555507,-0.051111884,-0.09521047,-0.09346096,0.16203734,-0.04282174,-0.009933091,-0.05361675,-0.07121225,-0.09111295,0.0559171,0.012310423,-0.07787167,0.0334219,0.093436524,-0.094599515,-0.033034608,-0.07909626,0.02035965,-0.035579666,0.09547934,-0.010999595,0.037802853,0.021158077,0.02920753,0.034880545,0.03526119,0.035253257,-3.0466752,0.03393095,0.025681818,0.08860897,-0.0332518,-0.08471795,-0.027573576,0.056622192,-0.04938532,0.016430372,-0.0023216393,-0.003814398,0.0063403063,0.08826961,0.06821621,0.006085361,-0.030390037,0.084214315,0.010241845,0.029571034,0.045709167,-0.021693895,-0.015317399,0.049462877,-0.111183085,-0.035401292,0.03564659,0.034657232,-0.054288212,0.07045661,-0.056646913,-0.13282064,-0.06266596,-0.09409674,-0.0077545126,-0.02040196,0.008875013,0.0933854,0.024836706,-0.0773969,-0.0459995,0.08773726,-0.06616736,0.05090376,0.02196234,-0.071488984,0.00061527855,0.014245291,0.058617298,-0.03387604,-0.09092579,0.021003855,-0.023827074,0.03958376,0.069543995,0.08636019,0.021453101,0.048717137,-0.0073095756,-0.00035088684,-0.08641805,0.057664726,-0.012157129,0.09437225,0.008473497,-0.011030685,0.008769839,0.069966614,-0.012569079,0.016200926,0.005947121,0.05871544,-0.13039686,0.04043374,-0.10592604,0.021571502,0.021714194,-0.014807558,0.08105277,-0.01570302,-0.022362867,0.0074052163,0.028927764,-0.073021196,-0.017287103,0.014053182,-0.040346432,-0.040669445,-0.0797743,0.09361712,-0.014046294,-0.06612054,0.14535803,0.08018324,-0.024598151,0.034009084,0.09352566,-0.08227595,-0.04679577,0.052838318,0.024512134,-0.0045710425,-0.032912318,-0.016139602,0.060265776,-0.039877288,0.0380023,0.095693,-0.06408444,0.10613073,-0.07394983,-0.018680504,-0.0067980303,0.042598967,-0.02108065,-0.033422206,-0.029284785,0.0838827,0.03390106,0.11199651,0.116852306,0.015517304,-0.058681305,0.10475685,-0.09903222,0.034021597,-0.08602879,0.10050242,0.016985431,-0.059805967,-0.02773096,0.045279033,-0.06042257,0.058752812,-0.013277863,-0.08716004,0.0036272663,-0.0588177,0.007658093,-0.07679388,0.11587485,0.058789253,0.007821497,0.03684754,0.074831136,-0.046671376,0.012277425,-0.22735399,-0.0039934204,0.13817687,0.02797064,0.009057572,0.03753682,-0.0422564,-0.08575899,-0.09341883,0.01650794,-0.021843717,-0.007821384,0.004490446,-0.024728386,-0.044687167,0.013440479,0.010346233,0.013170006,-0.07500112,-0.004311234,-0.013286898,-0.022767108,0.00011354358,0.08077178,0.095630914,-0.03106123,0.06509065,0.0020601323,-0.08255521,0.06542409,-0.0095834555,-0.0747714,0.015592539,-0.061422694,0.035170227,0.11723798,0.07430635,-0.018791666,0.002734848,-0.072411776,0.048346832,-0.040485445,0.04453249,0.094137,-0.038980093,0.0764559,0.101757385,0.03577787,-0.006630116,0.050330464,0.06351152,0.072121866,-0.012950491,0.10927318,-0.058532845,0.052733004,0.042901393,-0.06030087,-0.010637991,0.013407485,0.035520874,-0.0514829,0.01852602,0.08517188,0.0026737268,0.054284137,0.10806958,-0.016829092,-0.0685207,0.087779015,0.008760087,0.1231668,0.0055254945,0.058662806,-0.06284187,-0.05756109,0.028957576,0.033150464,0.018203747,-0.041032933,0.118789434,-0.050769486,-0.009732975,-0.030326532,-0.053291816,0.07969194,0.019304,0.11259923,0.026629696,-0.043447953,-0.011162464,-0.116061,-0.005186285,0.028933743,-0.0782404,0.035324834,0.0071990425,-0.026332675,0.042486,-0.15734877,0.068889365,-0.058192316,0.14934956,0.046128795,0.06166257,-0.05060744,-0.04388743,-0.0057429844,0.0822928,-0.02870203,0.11061207,0.00033005787,-0.032996364,-0.08455877,0.034011375,-0.031524405,-0.028132522,-0.03268099,-0.013987412,-0.044236314,-0.083498865,-0.020529002,-0.013921708,-0.03229424,-0.0021589838,0.005150345,0.0593881,0.07285151,0.12562548,0.032737307,-0.017277343,0.007387424,0.020652274,0.035657775,0.052881084,0.07679106,-0.076144464,0.06870187,-0.0029421935,0.1312126,-0.11579536,0.10335038,0.111921504,-0.0470889,0.007667089,0.06564893,0.01937037,0.022353059,-0.059399407,0.017014496,0.13475548,0.005929607,0.042478662,-0.0086712735,0.05531177,-0.0520073,-0.10596064,-0.119572885,-0.15128964,-0.0832763,0.04443321,0.118899174,-0.05030491,-0.1357753,0.013081228,0.08425568,-0.1818697,0.098183565,-0.0651347,0.0017667821,-0.005204022,-0.15215644,0.12588686,0.11456876,-0.09870119,-0.13125755,-0.05458642,0.003151424,-0.009247453,0.09902543,0.028960895,-0.023174249,-0.023350313,0.13016354,-0.08319344,-0.04202155,-0.046647307,0.018570265,0.0467259,0.0075719715,0.20516823,-0.024182508,0.016504938,0.031763706,0.08843298,0.04676466,0.018284604,0.09239119,-0.03640813,-0.0075852135,0.08209581,-0.0041042813,0.27223715,-0.00015768613,0.03545561,-0.055215817,0.005001731,0.048406567,0.11315365,0.107922345,-0.06559642,-0.013421472,0.0015710535,0.008488344,-0.00663005,0.07248019,0.06867175,0.06939303,-0.08961287,0.050145686,0.05237093,-0.018262971,-0.0047570514,-0.045499153,0.09310521,0.0075801956,-0.0072042197,0.012589242,-0.07656077,0.04164123,0.053633187,-0.07648088,0.07552248,0.08482431,0.003295874,-0.0042034653,-0.0007836688,-0.11630287,0.050925054,0.024035482,0.06175616,-0.024943268,-0.06753573,0.007314926,0.09870725,0.018985646,-0.01817626,0.16419983,0.03528469,-0.009580456,-0.023190264,-0.003339355,0.036107343,0.047838334,0.06460303,0.06359411,0.0037150718,-0.100489356,-0.06801273,-0.015070567,-0.07429892,0.12090017,0.10189716,0.0129866125,0.061802655,0.0452472,-0.008266655,-0.014009203,-0.10130097,-0.028295843,0.20666634,0.09475421,0.036731575,-0.122888096,-0.09161909,0.12522483,0.0063254586,-0.014576453,-0.008489556,0.024857434,-0.068629585,0.062354177,0.09488919,0.024868643,0.03262375,-0.008481545,-0.063543715,0.019571709,0.02154638,0.101130806,-0.05667474,-0.02372781,0.039942637,-0.014869311,-0.05321372,-0.046183378,0.043911844,-0.05922512,0.0718179,-0.00985737,-0.16781653,0.000569542,0.10601734,-0.040567763,0.022686468,-0.033799194,0.083656766,0.00021094737,-0.14248545,0.1750376,-0.11873278,-0.06990467,0.037854914,-0.014607655,0.08379763,-0.0842748,-0.0902246,0.045008697,0.020250134,0.047495104,-0.05196196,0.06175744,-0.04496845,0.0013211386,0.00022778037,0.01872123,-0.0005305185,0.076953165,0.16873462,0.04027189,-0.0703263,0.036218964,0.10744449,-0.03594602,-0.12520297,-0.10074724,-0.004760471,-0.10371461,-0.016198063,0.0051081097,0.041413773,0.023852764,0.09367786,0.05632299,0.08068431,0.07226835,-0.034337573,-0.021089792,-0.0767938,0.06101147,0.026768835,0.038255222,-0.091556296,0.036229674,0.06763558,0.5776206,0.049000677,-0.017356114,-0.06172128,0.032973908,0.059409782,-0.024251532,0.028659811,-0.05512972,-0.08645956,-0.07074287,0.03873179,0.021733403,0.084498964,0.09620166,0.10137015,0.08374996,-0.029319083,0.07315476,-0.15288943,0.0039083515,-0.011723683,-0.11506172,-0.028912192,-0.13539742,0.14393796,-0.013011104,0.059169285,-0.014044112,0.074051335,-0.007657136,-0.036369264,-0.04466269,0.08888715,0.05631047,-0.10542609,0.022999397,0.061610967,0.046774052,0.114178516,0.02399466,-0.101513706,0.0026129354,-0.096116446,0.06386293,0.0066673313,0.0114295725,-0.11258346,-0.11084866,-0.0335785,0.18019745,-0.053719398,-0.0009517682,0.07887536,0.045158602,0.047178928,-0.004359785,0.15117978,-0.015404332,0.05738444,-0.01114424,-0.14398059,-0.025737913,-0.056552023,-0.032668628,-0.054434802,-0.027784968,-0.04143291,-0.013578057,0.06651711,-0.037154526,-0.11013245,-0.04640245,0.011819574,0.08267195,-0.15944758,0.028293367,-0.073623694,0.012080431,-0.014753385,0.11357835,-0.05526357,0.08039221,-0.06584366,0.001147576,0.04029373,-0.049218453,-0.11231319,-0.12745406,-0.008185524,0.023501791,-0.12894207,0.035590712,0.004271538,0.08281262,0.09556408,-0.07171743,0.029463457,0.046818532,-0.04949087,0.12096325,0.059994776,0.0053005014,-0.06714644,-0.047888186,0.06042873,0.04698798,0.019056056,-0.016731147,0.031979013,0.06155091,-0.01640829,0.047108926,-0.015462467,-0.049248938,-0.077407815,0.006899889,-0.09507306,-0.00834257,0.056842685,0.048769567,-0.014594941,-0.03566665,0.05255994,0.024930894,-0.009366471,0.032932468,0.0048063137,-0.09021932,0.05978736,0.0538243,0.054324437,0.044821,0.12951116,0.03975259,-0.04037016,0.073352985,0.055938877,0.12076043,-0.0640316,0.08893857,0.023090223,0.023837643,-0.06189421,0.10587466,0.003806582,0.058915902,0.053900547,0.053673103,0.018393597,-0.014780769,0.055389866,0.015468011,0.06341577,-0.03706789,-0.010409394,0.085435875,-0.044404346,-0.0010405971,0.016284047,0.010500819,-0.07170419,-0.061385587,0.08558631,0.040399652,-0.07568777,0.007239237,-0.06414646,-0.03615086,0.04287076,-0.074767515,-0.03779823,0.05982075,0.0065955855,-0.060569294,0.010055987,-0.0045267628,0.011910957,-0.03617611,0.0054580225,-0.061127387,-0.05940285,0.028009009,0.034847494,0.0010483739,0.033247527,0.06921257,0.08156038,-0.17001304,-0.028776385,0.03573647,-0.0065726647,-0.12586735,-0.054428004,0.07313539,0.055377327,-0.13325451,-0.051584184,0.07063505,-0.04763967,0.21764682,0.067729756,0.061146174,-0.03147188,-0.033673774,-0.09695331,0.10783978,-0.014206503,-0.10716033,-0.017787186,0.07321418,0.023241585,-0.046628382,0.046861473,-0.014167985,0.03638459,0.08283697,0.031542737,0.015391438,-0.07658449,-0.12519833,0.05001739,-0.038869366,0.09125115,0.055076905,0.032144062,-0.055846516,-0.020047456,0.0005828322,-0.087066874,0.08148832,0.03623496,0.04228328,0.039084695,-0.05757058,-0.033040255,0.122065686,0.018793702,0.05371327,-0.019944724,-0.056668844,-0.020258332,0.14605407,-0.013579106,-0.090012304,-0.11846903,-0.029439468,0.06566461,-0.0007601013,0.057601053,0.041466642,-0.026134761,0.017162492,0.024779616,0.029731028,-0.18522923,0.06986482,0.0018380436,-0.041033845,-0.0014421458,0.07058736,-0.012094056,0.045809638,0.040513948,-0.058778293,-0.026785119,-0.06697645,0.032688312,0.0077379756,0.06467015,-0.023191603,0.10100335,0.022289181,-0.00021289472,0.1540172,0.06885197,0.053737253,0.058675576,0.04036573,-0.038298797,-0.047209527,0.0992073,-0.023830952,0.07019298,-0.07984148,0.029798301,0.013668577,0.13130414,0.08392447,-0.061813366,-0.15189555,-0.017266773,0.037304837,0.03956606,-0.08250436,-0.016024841,0.029917857,0.1410445,-0.122788444,-0.018582921,0.07470665,0.037466507,0.13097852,-0.025899211,-0.08024822,0.112151496,0.07667941,-0.018360602,0.041290212,0.025992531,-0.0088735605,0.05233665,0.04420889,0.07247606,-0.13240516,0.05954587,-0.042430744,-0.043298453,-9.113142e-05,0.09352921,0.036781866,0.005878789,0.025153432,-0.034320217,-0.021250607,-0.06232353,0.03116602,-0.0126375975,-0.043992594,-0.038594503,-0.026662042,0.08978487,-0.019827036,0.0010010004,-0.009624824,-0.13526005,-0.06012842,0.02346739,0.01992018,-0.020598078,-0.057877567,0.047646005,-0.07554411,0.01359652,0.036465704,0.060047254,-0.027842375,-0.019962272,0.08530253,0.0013601882,-0.09371676,0.02746968,0.026277585,-0.019117728,-0.06648967,-0.0092387935,0.10643489,-0.037259094,0.06874484,0.049382098,-0.0006423147,-0.04197847,0.138996,-0.008663017,-0.027892169,0.00025953088,0.107313484,0.0046699727,0.014351747,0.041628137,0.13865617,-0.044666585,-0.031395238,-0.037272256,-0.10115648,0.044985462,0.008733527,-0.026095329,0.0010349799,0.11942435,0.08600202,-0.02903759,-0.100943446,-0.054476798,0.08519563,-0.04870802,-0.013556908,-0.019803133,0.04482826,-0.007234499,-0.06429651,-0.014554648,0.022123503,-0.04029825,-0.07513865,0.053658247,0.049330313,0.027555298,0.033910174,0.01678813,0.11121778,0.049125805,0.010016527,0.10444318,0.07301464,0.025122672,-0.1171606,-0.03280675,0.011823169,0.16989955,-0.04485375,0.00014533654,-0.033291943,-0.01610529,0.044928886,-0.080760784,-0.020707017,0.035371568,-0.008121293,-0.044356667,-0.0011170756,-0.0043101003,-0.013388669,0.023060977,-7.820172,-0.037421487,-0.004208341,0.03918021,-0.016664509,0.013824387,-0.02129147,0.021873053,0.025759017,0.034219734,0.026497442,0.036572926,-0.06502392,0.077394724,-0.004612049,-0.016140902,0.069151975,-0.07009607,-0.028811455,0.08790003,-0.015527305,-0.019775804,-0.061721325,0.14126085,-0.07063897,-0.0013102645,-0.0056925784,-0.053670995,-0.03364629,0.01510351,0.016777752,0.122938536,0.056364067,0.011081331,0.1370552,0.11935475,0.06254126,-0.083230704,-0.024397975,0.03311035,0.030570948,-0.06719203,0.123565905,0.102615215,0.096969225,-0.009501698,-0.014416061,-0.071854085,-0.0025016821,-0.110025615,0.046126746,0.11811038,-0.0005923714,-0.03014601,-0.01573607,0.037266877,-0.008149056,0.21318157,0.021595865,-0.014920822,-0.021198615,0.020711401,0.022900887,0.069507234,-0.047057796,0.13060051,-0.02325797,-0.12595372,-0.14434883,0.07408372,0.010749055,0.11259875,0.08868211,0.07440963,0.044240933,0.07487104,0.02697989,0.061162844,0.07886752,-0.009191052,-0.06501643,0.0423099,-0.03831032,-0.026801787,-0.016291706,0.03975898,0.023524038,0.08385508,0.017373683,0.12124152,0.11743934,-0.04478003,0.0037341346,-0.012078771,-0.007182634,0.027433595,-0.05981722,0.051894996,-0.0075891335,0.10392164,0.091613255,-0.044625785,0.041217893,0.068053536,0.043021612,0.04276471,0.02944959,0.09651209,-0.13792874,0.03977755,0.14197892,0.0036246916,0.0135847,0.04329704,-0.0075998134,0.0057574185,0.03852031,-0.12411985,-0.04470905,0.037083175
lcl|KR029087.1_prot_AKF12494.1_4,-0.028125996,0.03291782,-0.01703492,-0.051552802,-0.046023704,0.061596747,-0.057398766,0.053760063,0.056858394,-0.06641538,-0.009321994,0.018167565,0.0800433,0.07188883,0.0025691204,0.15046377,-0.03579779,-0.028699744,-0.0688627,-0.03481568,0.0075674304,-0.0063791666,0.030558014,0.11836918,0.04109198,0.11912067,0.03201596,0.077165976,0.060555853,-0.10802978,0.022577219,-0.032644153,0.051751412,-0.1072407,-0.04253252,0.09979391,-0.04751697,-0.015261825,0.020184398,-0.042877667,0.03485931,-0.073538505,-0.027990129,-0.012707733,0.07069216,-0.09620125,0.07566253,0.016369041,0.076324515,-0.06946076,0.028090863,0.021269733,-0.030087158,0.03243227,-0.14204746,0.005028597,0.013957294,0.104983196,-0.058675323,-0.067382075,0.072482385,0.010629647,-0.0781348,0.008376137,0.029675595,0.044434335,-0.035011835,-0.024231307,-0.04213974,0.011279229,0.00842794,-0.1749366,-0.04502545,0.026297512,0.060880844,0.029307349,-0.022506787,0.037937216,0.10400599,0.01127465,-0.006464132,-0.04527936,0.052331492,-0.02869092,0.029866455,-0.0729534,-0.056695037,-0.03475506,-0.025421547,0.04034765,-0.00023970679,0.06984331,-0.03787503,-0.026834175,-0.053132296,0.015537099,0.004387618,0.021179706,-0.066794924,0.05276941,0.002671976,0.021227472,0.121197924,-0.07730023,-0.02932901,-0.028224226,-0.06046353,0.054252177,0.055196926,0.03818821,-0.002398853,0.044774037,-0.018600283,0.03425065,0.14580807,0.054608226,-0.033885084,-0.028371494,-0.103414826,0.03159351,0.04576652,-0.05170181,-0.041682538,0.009920723,-0.055923015,0.07195413,0.03814028,-0.045256715,-0.07986066,-0.03387826,0.025626963,0.012016097,-0.009252118,0.07435903,0.04376018,0.06774334,-0.04005668,0.051300686,-0.006486722,0.07575143,-0.0758671,0.083931275,-0.036603983,0.07581515,-0.009554758,0.048138678,0.00014091587,0.010063429,-0.06675338,0.05376753,0.019947918,-0.055884477,0.02159744,0.02826925,0.039127637,-0.002803022,0.049584407,0.017565206,0.037679426,-0.007852439,0.036444757,0.04783842,-0.03136158,-0.050004497,0.043637976,-0.061865713,0.12882346,-0.019692415,0.04914496,-0.017718723,0.033744767,0.038499173,-0.016543271,-0.018872807,0.06109041,0.058262806,-0.017815506,0.044334486,0.16445614,0.0309835,0.018082952,-0.018969867,0.049062133,0.043948445,0.025433227,-0.065403305,-0.012509904,-0.0072607696,0.08591967,0.028341267,0.033862934,0.007638243,-0.04146074,-0.023792058,0.072739504,0.078962915,-0.10104458,0.044869028,-0.024094982,0.06222526,0.07290866,0.022222083,-0.026811004,0.10659888,0.043558072,-0.0895323,0.0059698466,-0.0035626278,-0.044365183,-0.028003432,0.13632508,-0.036129355,0.008665371,-0.1256592,-0.092238195,-0.1137325,0.1558573,-0.03876501,-0.069823764,-0.032353085,0.06910323,-0.059086297,-0.009440617,0.039984606,0.090551764,0.030204741,0.15108554,0.0027698958,-0.03775629,-0.07128118,0.024808748,0.008339021,0.045491796,-0.0014095256,-4.5069475,-0.00014299153,-0.03603445,0.03771272,-0.09262627,-0.17860536,-0.020309925,0.055469036,-0.0037126846,0.01735887,-0.046316575,-0.052385725,-0.040625542,0.101535246,-0.034009796,0.012460139,-0.017282957,0.038377315,0.038434636,0.050385747,0.080778435,-0.05319062,0.00030659113,0.06403216,-0.09374775,-0.02734606,0.07482938,0.00785383,-0.026064849,0.025105162,-0.0039609247,-0.08677858,-0.1400399,-0.02737816,0.024507139,-0.027788904,0.026130108,0.016226204,0.04666516,-0.002145065,-0.03056294,0.07179302,-0.13935563,-0.047099862,-0.003398132,-0.05742401,-0.012239412,-0.03926744,0.020076659,-0.07976894,-0.10658095,-0.05878119,0.026332764,0.020807637,0.03416431,0.027496887,0.0045103524,0.019637693,-0.050622303,0.053079303,-0.095835626,0.11455279,-0.03884841,0.0007085609,0.11802766,0.0008303928,-0.08289748,0.041576304,-0.021921542,-0.024660032,-0.008736853,0.03524673,-0.0661082,0.043926056,0.014194035,0.08202508,0.018132633,0.012627741,0.04606905,-0.005675515,-0.026951987,-0.009575306,0.012664478,-0.1215266,-0.116654366,0.0076760617,0.035404913,0.044406366,-0.0945071,0.07297428,-0.0381085,0.046863116,0.18665878,0.007500403,-0.043773852,-0.009654257,0.0354271,-0.044923436,-0.077711724,-0.028542977,0.041491844,0.03349569,0.08507614,0.010274523,0.0993914,0.027332485,-0.002387328,-0.008015488,-0.079710506,0.067301735,0.024554878,0.00707302,-0.04600523,0.011668254,-0.006701935,0.01264688,-0.058802117,-0.028876385,0.035884034,0.040057868,0.02435423,-0.009648746,0.0019107045,0.10715189,-0.08654871,-0.018902812,-0.060782034,0.08212796,0.019884538,-0.1291231,0.07267768,0.06444922,-0.057987135,0.018198732,0.0073821247,-0.058966264,-0.031477313,-0.108943745,0.028790856,-0.075587675,-0.0028986824,0.081552304,-0.07545254,-0.07772098,0.13536133,-0.027143782,-0.08397232,-0.32946682,0.06463631,0.13830124,0.0011541368,-0.038764812,-0.018120555,0.0476571,0.03931293,-0.08291632,-0.021424014,-0.0154079925,0.0074541722,-0.015577558,-0.030499,0.028061198,0.050803315,0.00053482363,0.054818895,-0.11438463,0.11114212,-0.07921479,-0.00017867566,-0.016214445,0.10987749,0.040371712,0.00057134515,0.12059558,-0.01782482,-0.13149631,-0.05604093,-0.0082357945,-0.08039901,-0.061851803,-0.06992346,0.049734205,0.14199679,0.03365615,-0.06967196,0.031760998,-0.00382147,0.030238297,0.022474112,0.014325034,0.061189845,-0.060215775,0.059083585,0.07065875,-0.027169246,-0.04435361,0.11968208,-0.030016553,-0.020651976,-0.010111541,0.09245924,0.006139278,0.06303855,0.08966775,-0.06300169,0.0085223755,0.002659241,-0.023727465,0.07525732,-0.058366686,0.039511785,0.018951988,0.05768342,0.01967571,-0.021826157,-0.12533519,-0.0060675405,-0.078418724,0.066468015,-0.0019325428,0.05276342,-0.007036235,-0.015628906,0.11615436,-0.0037024731,0.08633453,-0.08006369,0.07336241,-0.057754155,0.065662496,0.05915022,-0.15494473,0.12045718,0.048317228,0.07846799,-0.018587936,-0.0062322193,-0.0072841253,-0.11152507,0.081875674,0.045121595,-0.17977078,-0.006531849,-0.038705103,0.053143315,-0.042441554,0.017231967,0.0015541629,-0.06705652,0.16710274,0.037296385,0.009066855,-0.02999635,0.056849163,-0.0032616747,0.12052517,-0.043378167,0.06132611,0.056507703,-0.02027417,-0.1368395,0.018033115,-0.012159535,0.010572896,-0.011249428,-0.009832446,-0.122337885,-0.024714405,0.07177298,-0.036130175,0.02387785,0.07812345,0.00997666,0.056155343,0.014419279,0.08657681,0.021334572,-0.075495765,-0.009202875,0.010935622,0.012456386,-0.023170352,0.058505148,-0.041141372,0.05705541,-0.060160596,0.07313514,-0.14671616,0.11267618,0.010484713,0.03610074,0.005600346,0.009337074,-0.028225154,-0.019649392,-0.0074773924,0.02486924,0.05696958,-0.012033503,0.041855413,-0.027627904,0.09053857,-0.04556625,-0.061453335,-0.0033759542,-0.10202808,-0.09212739,0.02928986,0.07483127,0.012549275,-0.034084443,-0.00020773707,-0.016660096,-0.106786475,0.09195713,-0.12926349,-0.0005880164,0.015568554,-0.0466837,0.0391712,0.109492965,-0.071389355,-0.20362201,-0.06345929,0.012603008,-0.058745116,0.044014174,0.0405773,-0.052684024,-0.021060372,0.18668646,-0.0566159,-0.097879745,-0.038554803,-0.07606232,0.114880025,-0.07277979,0.06732154,0.0733462,0.057927646,0.039124385,0.1548267,0.069533326,0.04845169,0.030003417,0.061066348,-0.12414159,0.00019480458,0.021594958,0.2568282,-0.017467922,0.09129148,-0.037426304,-0.03763606,0.024950119,0.0919801,0.059344172,0.018121773,-0.02707303,-0.043661132,0.084790915,0.09247111,-0.00096341816,-0.007561271,0.05531798,-0.08445104,-0.020340163,0.10286506,0.036940183,0.0108044315,0.003998667,0.07025399,-0.0691202,-0.0011164643,0.03511801,-6.219695e-05,0.15959428,0.047528557,-0.05259307,0.003444774,0.0024411683,0.061560173,-0.027409267,0.059414,0.0075896545,0.005083289,0.043004163,0.040085334,-0.1012555,-0.037328552,-0.019367205,0.12533352,0.089100964,0.052945346,0.08437099,-0.0408525,-0.047056343,-0.07394416,0.03797248,0.048963457,-0.020951504,0.042133547,0.100544505,0.011886238,-0.03669429,-0.13412544,0.087845266,0.0585281,0.15363356,0.043909684,0.012457576,0.13740906,0.08964625,-0.017713025,-0.08993456,-0.1374059,0.024173558,0.19719714,-0.017270714,0.027422972,-0.061519966,-0.17923783,0.12577592,-0.011524069,0.02468678,0.021542756,0.0046508,-0.010102983,-0.0124124335,0.07682217,0.011700855,-0.055201072,-0.035351932,-0.11718224,-0.034123395,0.021105487,0.06602415,-0.022198616,0.084574334,0.03752929,-0.060502157,0.00714527,0.03195855,0.11096459,-0.11072324,0.032153375,-0.0029194702,-0.061567664,-0.012586173,-0.017984191,-0.056776583,0.012165424,-0.048947353,0.010995701,-0.012366361,-0.049678866,0.13654277,-0.008053683,-0.07915727,0.014201618,0.04905565,0.03685639,-0.07141726,-0.06860183,0.10917559,0.06847633,-0.0772808,0.030989328,0.046261672,0.05167617,0.05042087,0.040973857,-0.043259766,0.036600698,0.034209006,0.066882014,0.069456525,-0.0790066,0.10710458,0.0020530624,-0.020194355,-0.107388504,0.0055337674,-0.04478749,-0.06645927,0.075836,0.05335478,0.044110324,0.020596698,0.14369892,-0.029895004,0.12015551,0.033401564,-0.052765112,-0.1155878,-0.06559808,0.04764491,0.09737255,0.06778069,-0.034819134,0.089919,0.058880445,0.8438986,0.07719111,-0.099569224,-0.041200068,0.07862023,0.10147374,-0.010258234,-0.0016664191,0.026491461,-0.008345077,-0.03293098,-0.028201625,0.014630951,0.041777577,0.09788386,0.10273682,-0.0025803226,-0.0011726222,-0.1055472,-0.06440663,-0.04019605,0.018897707,-0.066127054,-0.016218208,-0.14529717,0.11411161,-0.0153451385,0.039818972,0.048420217,0.07972689,-0.0768994,-0.07090216,-0.046227653,0.05736646,0.011951025,-0.12565683,-0.0015500055,0.015830595,-0.018823631,0.11467353,0.008381451,-0.09296661,-0.07688731,-0.08354753,0.07422858,0.011475854,-0.033017047,-0.06798688,0.006115224,-0.0059354515,0.15012793,-0.0580273,-0.07407335,0.0050239908,0.120919034,0.019666689,-0.038001504,0.052566096,-0.014970587,0.04437252,-0.0011195161,-0.112018846,-0.060312953,-0.006932122,0.022364656,-0.035331294,0.037905816,-0.121287234,-0.045330502,0.18120962,-0.044638827,-0.0018122088,0.01043817,-0.086777814,-0.010796588,-0.12981309,-0.033815604,-0.06312825,0.008444765,0.020445706,0.09248708,0.041481175,0.063167244,-0.092604674,0.09292162,0.09175402,-0.11963375,-0.13272204,-0.12028032,0.018351918,0.09442562,-0.05005784,-0.02675089,0.03788983,0.09931351,0.057635274,-0.0026432534,0.14398772,0.03902426,-0.08219507,0.12868488,0.043519598,0.03961601,-0.049580533,-0.001995688,-0.022356063,-0.008118064,0.0535133,0.04660456,-0.013723941,0.019928476,-0.05989881,-0.035127606,0.06385622,0.023891233,0.08034546,0.025342947,-0.07213048,-0.05995681,0.0051861038,0.08202472,0.10553412,-0.0181437,0.011507432,0.031285193,0.017841885,0.118940845,-0.06925814,-0.09001855,0.09128822,0.055040423,0.08877652,-0.04424978,0.19010687,0.04253765,-0.1386948,0.17173067,0.0700116,0.07489717,-0.0122421505,-0.23922849,0.0405524,0.016589433,-0.031653997,0.058728293,-0.025239352,0.015331835,0.07411724,-0.013587516,0.023291431,0.046828307,0.024808146,-0.013355505,0.015640028,0.015298944,-0.0752283,-0.030503463,-0.06168894,0.1147168,0.08845673,0.07765649,-0.12053558,-0.017990077,-0.08269061,0.104594834,-0.03551274,0.016362576,-0.0152237285,-0.01445326,0.055911772,-0.0546215,0.021922966,0.031046353,-0.020822633,-0.04084861,0.019874569,-0.009528918,0.041933592,-0.023718461,-0.018524129,-0.02434023,-0.0061343624,0.021648645,0.07392212,-0.017393928,-0.015284178,0.08843438,0.072178416,-0.0525311,0.056834877,0.03774962,-0.033608552,-0.09555754,-0.00094010006,0.054952707,-0.0698696,-0.07623987,-0.102429,-0.025112545,-0.00195811,0.18233699,0.06364093,-0.011246668,-0.06510826,-0.08286394,-0.060627714,0.16331767,-0.10675516,-0.10455131,-0.010641578,0.09708296,-0.008851944,-0.049157877,0.09072828,0.032813624,0.0542698,0.07023159,0.05861032,0.028352486,-0.03650503,-0.05967529,-0.038283527,-0.012790609,0.07471639,0.13524115,0.035232533,-0.06787168,-0.03610851,0.00281507,-0.063603275,0.016843095,0.047284037,-0.07240504,0.012862375,-0.05424412,-0.008531143,0.069148876,-0.004698272,0.034946587,-0.041195452,-0.057273436,-0.007535305,0.11964595,-0.032457545,0.071099915,-0.026736874,0.04363648,0.038024932,0.064054325,0.060712285,0.01601197,0.0015412725,0.06952293,0.10059583,0.016847156,-0.108022265,0.07867173,0.082611784,-0.03690996,-0.087235495,0.08009709,0.06720715,0.041577812,0.0726434,-0.03886759,-0.06290368,-0.038087677,0.090068236,-0.025374833,0.031532176,-0.16589402,0.0010333947,-0.039348427,0.013166599,0.12761086,0.06309562,0.075170256,0.11117791,0.03993843,-0.061023466,-0.060237624,0.0888625,0.0055721956,0.066816546,-0.08710978,0.034822132,0.027361212,0.110146254,0.10585364,0.0013452852,-0.115177035,-0.029385457,0.08616086,0.0071694735,0.0066008065,-0.044728957,-0.02525723,0.21455191,-0.1443905,-0.095548704,0.1366492,0.02154106,0.1390762,0.027343553,-0.13059257,-0.04543332,0.03903087,0.058015905,0.095916055,-0.0073336517,0.017779328,0.08458461,0.07034839,-0.028801033,-0.01515284,0.008620503,0.0055141333,-0.01987761,-0.028463617,0.00496031,0.03816518,0.020527132,0.035334192,-0.018093256,-0.033135124,-0.008702701,0.010552436,-0.03770683,-0.013548788,0.016041955,-0.0147822155,0.028346753,0.012535587,-0.021287747,0.09909704,-0.10723113,-0.09549457,0.02540564,0.0070569026,0.027393507,0.06340756,-0.067012295,-0.0350997,0.0966983,-0.024279559,-0.012579743,-0.023580236,0.015229269,0.09044198,0.05759489,-0.11045555,0.136086,0.018080574,0.04494443,-0.026129339,0.046386857,0.00969898,0.0564923,-0.00034613293,0.18244864,-0.005104514,0.040473066,0.10434083,0.008634547,0.0134364385,0.008741066,0.07073352,0.04556941,0.00018005683,-0.030131675,0.06870665,0.01091822,-0.11413806,0.0023453785,-0.082763754,-0.039933115,0.045012604,-0.061387323,0.000835308,0.11165002,0.0938736,0.030344136,-0.07811477,0.0026768625,0.049858216,-0.0057806987,0.0010104658,-0.033551723,0.013959361,-0.056415077,-0.062287178,0.07673524,0.03697465,-0.07673793,-0.032912243,0.027078489,0.07463061,0.06666546,-0.04951358,0.044689048,0.063358724,0.0046209535,0.05919593,0.08515324,0.071818896,0.094269626,-0.03185422,0.023339482,-0.018982187,0.12138003,-0.041198313,-0.08245622,0.052068777,-0.033471208,0.0035959694,-0.021352164,-0.044500083,0.1320453,-0.084917895,-0.08286385,0.007368322,0.016022911,-0.0146208815,-0.040603466,-8.028306,0.0029575292,-0.04057897,0.045294434,-0.035776008,0.025786797,-0.01346976,-0.053620674,-0.061716765,-0.027066113,-0.055760235,-0.0036100482,-0.04330629,0.06521657,0.00037909628,-0.0020652378,0.026529744,0.0030072355,-0.0049501793,-0.00423081,-0.073553845,-0.036937665,-0.020510305,0.06603293,0.0077462457,-0.019614022,-0.07982902,-0.040441073,-0.00788206,0.006669228,-0.039220326,0.034651864,0.034519143,0.031087792,-0.002879005,0.18656395,0.10909108,-0.06395995,0.031974856,0.01703242,0.1310794,0.034529,0.12462312,0.0769738,0.14516047,-0.010643689,0.011913177,-0.05971316,0.08867959,-0.1671211,0.050502993,0.15642944,0.10392618,0.030261708,0.00024521592,0.030066136,0.050942086,0.19118302,-0.05623542,-0.0024278427,0.028774444,-0.042829316,-0.09135051,0.14698662,0.035026375,0.16390744,-0.009454141,-0.06971225,-0.05728074,0.076875076,0.10211565,0.09121602,0.016244698,0.05642419,0.08690926,0.020404283,-0.01942558,0.06482995,0.14017145,0.059329715,0.045728523,0.024985746,-0.011208917,-0.10594629,0.03929571,-0.0026362042,0.023744667,-0.009256373,0.010443958,0.10365793,0.080298744,-0.09313001,0.0031914571,0.053447038,-0.041324187,0.011730717,-0.1272794,0.08449709,-0.021449495,0.1058293,0.030632464,0.009320976,-0.06468896,0.06326858,-0.016812975,0.0023675745,0.070112005,0.050416138,-0.0869389,0.05146493,0.024284054,-0.01847801,-0.020150814,0.06267628,-0.013504391,0.16012816,0.01919257,-0.109142624,0.039397225,0.027592223
lcl|KR029087.1_prot_AKF12493.1_5,0.01789732,0.069743015,0.007050117,0.009909514,-0.0030224968,0.056471966,0.022017417,0.07269597,-0.032852564,-0.09121474,-0.014631707,0.012180484,0.1041934,0.08420469,-0.034850318,0.18425404,-0.005959284,0.005972652,-0.048349235,-0.053110562,-0.005604972,-0.06244403,-0.008591522,0.14463475,-0.035597883,0.07571576,0.024269443,0.056523748,0.017532688,-0.10763103,0.007557766,-0.1393739,0.03432565,-0.060730733,-0.06560019,0.012477854,-0.08602306,-0.04348011,-0.03709411,0.03203212,0.031147912,-0.11363726,-0.07821889,0.004869325,-0.040747706,-0.08344587,0.06079056,0.019084008,0.041093864,-0.10091019,-0.02302655,-0.02448033,0.04862097,0.050816737,-0.073805936,-0.031815555,0.06584091,0.08333934,-0.08226023,-0.00080616225,-0.06427709,0.029960794,0.043313157,0.0025741188,0.06698214,0.03171057,-0.009278969,-0.037115987,-0.08913706,-0.06555188,-0.0001928356,-0.106636524,0.006573083,0.00042635028,-0.0032402796,0.042224113,-0.017638916,0.038938418,0.08469694,-0.088834696,0.0002773981,-0.08526169,0.09621634,-0.011496919,-0.012688697,0.021016173,-0.008171042,0.026891788,0.007929667,0.008639463,0.0358534,-0.031549286,-0.09106449,-0.08121896,-0.05766542,0.03498308,-0.031750187,-0.013084157,-0.00017389147,-0.026797066,0.081157126,0.0039191227,0.03153956,-0.13536511,-0.006399972,-0.027332664,-0.04744446,0.06395316,-0.055807132,-0.024571745,-0.00980326,0.020504706,0.016949235,0.04629343,0.12009271,0.1163568,-0.03790915,-0.05144812,-0.04458197,-0.018354757,-0.09826895,0.026822066,-0.03130651,-0.016161196,-0.005103085,0.04650893,0.045300525,-0.022434326,0.019443061,-0.059294876,-0.028855054,-0.008564912,0.012797137,0.009105153,-0.0070206583,0.069520704,0.042180553,0.11591045,0.029387033,0.042414974,-0.02485131,0.0019505004,-0.0120793125,0.044687938,-0.0123912,-0.0144018335,-0.05915191,0.021607814,-0.08410764,0.040158052,-0.07895432,-0.09055941,-0.0033500378,0.0043066745,0.017536553,0.018505344,0.02922259,0.03743584,0.03498776,-0.0058861957,-0.0032511961,-0.008305572,0.020161722,0.031271268,0.022648117,0.019391067,0.049279507,-0.02823717,0.04090638,-0.01515791,0.03908227,-0.026641477,0.084086485,0.014511479,-0.06788676,0.008162882,0.024632601,0.06624077,0.17730615,0.09530478,-0.04446061,-0.08671487,0.040898085,0.074106306,-0.020697882,-0.10049782,-0.031366017,0.033100642,0.042684413,-0.024747685,-0.0061009596,0.020499246,-0.044076614,-0.041859657,0.14797878,0.07661362,0.0025966293,0.11581966,-0.0861642,-0.06383717,0.10446202,0.0127347885,-0.01576796,0.07179358,0.017433714,-0.08261164,-0.04457467,-0.016371207,-0.048948474,-0.07118274,0.16865864,-0.0513859,0.00042523822,-0.007396226,-0.12206217,-0.048896406,0.10708351,0.007821182,0.0023490589,0.034206536,-0.012717819,-0.022501191,0.035323936,-0.051924247,-0.012494337,-0.02213134,0.075359724,-0.04852706,-0.04592851,-0.07681362,0.0990172,0.08673258,0.08394752,-0.035521016,-3.377092,0.03631802,-0.0034888918,0.0960376,-0.05061644,-0.11336238,-0.01594631,0.022359943,-0.023003552,-0.027293095,0.0082707405,0.022881173,-0.009569422,0.06644001,0.11003748,0.00743175,-0.002724909,0.05854228,0.030590776,0.059697848,0.02197261,-0.003554514,-0.026288224,-0.0024864152,-0.03989262,-0.021623282,0.07092156,-0.016882943,-0.04394943,0.04486196,-0.08046432,-0.016004007,-0.093637325,-0.10038421,-0.030617155,-0.03230355,0.021578558,-0.044831425,-0.019176345,-0.047221202,-0.055741563,0.067386016,-0.059544962,0.03519518,0.043626737,-0.07515522,-0.035879828,-0.0064601838,-0.045626815,0.0026910976,-0.083529405,0.083348125,-0.054023847,0.08742516,0.08875495,0.022613296,-0.0024366935,-0.0054828892,0.008505188,-0.053844076,-0.04685294,0.05125209,0.013065414,0.077171415,0.070171095,0.069384255,0.008023984,0.046073183,-0.03727527,-0.0018149284,0.052433174,0.01504023,-0.048915517,0.0017693803,-0.019164598,0.10135674,-0.012449694,-0.08197387,-0.0050968756,-0.023330199,-0.0328463,0.035030466,0.08275157,-0.07747451,-0.047650468,0.060949847,-0.07868223,-0.04604692,-0.05703709,0.07860581,0.016469037,-0.008523403,0.11569012,0.08525389,0.028590415,0.038456798,0.043324273,-0.047030974,-0.09528969,-0.0019066809,-0.04401708,0.06156686,0.008788413,0.034369506,0.043474104,-0.027212786,0.08696033,0.07325227,-0.004419843,0.10035704,-0.014648706,-0.04405698,-0.11135939,0.017440852,0.035395432,-0.039761752,-0.096600406,-0.03941774,0.029152412,0.09724632,0.13113365,0.0270645,-0.036730587,0.038231585,-0.07937872,0.083672956,-0.024855573,0.056291707,0.021639276,-0.055741474,-0.0074474076,0.02443942,0.008889298,0.01121723,0.04872596,-0.02185323,0.12349859,-0.017534683,-0.024581393,-0.0019294412,0.08573732,0.013816025,0.0047850753,0.005818876,0.08638175,-0.056966152,-0.06418949,-0.25001526,0.05285475,0.14450291,0.04938162,0.029559601,0.042133603,-0.030904533,0.005064004,-0.015267783,0.0346859,-0.029589195,0.006891919,-0.021313934,-0.04250071,0.01909494,-0.07045139,-0.0121289035,0.051982254,-0.08451462,-0.014871335,-0.008134166,-0.10100584,0.091171995,0.063856035,0.055712562,0.039791945,0.08779711,-0.0014157168,0.012848381,-0.032036934,0.014007274,-0.038341198,0.025644505,0.02142779,0.007885144,0.038913604,-0.008401873,-0.05235377,0.06854551,-0.012348873,0.10273367,0.035689782,-0.017698865,0.039229885,-0.085976854,-0.0108057195,-0.0011687088,0.0132291,0.049426816,0.069685884,0.044788744,-0.020003494,-0.06103483,0.08264187,-0.014633999,0.028075146,0.05904164,-0.063618675,0.050040472,-0.034653567,-0.010067159,-0.061316617,-0.029307438,0.15050773,0.00700847,0.014709979,0.04406693,-0.026153076,-0.007025372,-0.016648082,-0.06109824,0.010132275,-0.0015846769,0.027511306,-0.0636999,0.023669418,0.124566674,0.06262437,0.045363456,0.022025581,0.039845947,-0.032038946,0.013826491,0.05493036,-0.06267892,0.13086711,0.009533514,0.054134235,-0.0068422495,-0.011844391,-0.04447487,-0.118487224,-0.0033327772,0.008211621,-0.10960425,-0.032850184,-0.0053587593,0.04612605,0.006232649,-0.10916252,0.08306235,-0.03398601,0.03623155,-0.0095779,0.034282744,-0.020717422,-0.046922434,-0.002607377,0.053484935,-0.041584738,0.06610832,0.022699578,0.030872399,-0.076350525,0.10055235,-0.07636358,0.011725714,-0.08902688,-0.033503965,-0.090045206,-0.030345466,0.0061887912,0.033583682,-0.055181723,0.038954977,0.020638943,0.04832034,0.07739043,0.12745619,0.0097737005,-0.011073858,0.01374281,0.051938646,0.04987466,0.0099363895,-0.027370356,-0.08959098,0.0028451716,-0.023573963,0.06013238,-0.09720891,0.046626993,0.07137577,0.012621422,-0.016376493,0.055896584,-0.017480228,0.021883322,-0.046822257,-0.01931462,0.012561041,-0.017543009,-0.00018265288,-0.10435369,0.025704097,-0.043552104,-0.017288765,0.06155243,-0.1597959,-0.013570974,0.053951517,0.07935716,-0.061997183,-0.015336714,-0.04402817,0.05115479,-0.08547755,0.04862068,-0.114553325,0.033290643,0.04090237,-0.07024287,0.024241414,0.16641438,-0.020481274,-0.14209788,-0.030844467,0.051050607,0.0073524322,-0.0003785624,0.043805744,-0.03569544,-0.03308804,0.12758163,0.004307784,-0.08503067,-0.035718217,-0.06626882,0.032418333,-0.04523105,0.16587888,-0.05857102,0.02982299,0.025917498,0.06771507,0.055689495,-0.0010718795,-0.013554613,0.0010503461,-0.013846077,0.056757927,0.03986942,0.18715492,-0.02128123,0.08752338,-0.049621865,-0.021564845,0.052359123,0.077061184,0.06100494,-0.020445403,-0.04460844,-0.017271956,0.06950917,0.026904162,0.063356034,0.0058500296,0.1387818,-0.037350815,-0.03308975,0.033732153,0.067996725,-0.04967207,-0.07753819,0.04284273,0.032483444,0.0034003416,-0.00020867998,-0.04810377,0.0236371,0.04067137,-0.06825388,-0.005174197,0.08268191,-0.030199463,0.07025661,0.020537946,-0.041466057,0.037828073,0.039911393,0.03924528,-0.0495075,-0.06488556,-0.0096843215,0.111034594,0.022976113,0.06279236,0.11566154,-0.032002624,0.03223227,0.061152592,-0.017538207,-0.016222857,0.03725629,0.026206348,0.03168868,-0.0068708067,-0.11426609,0.005518785,0.11873502,-0.008499484,0.049811505,0.112656064,0.07590197,0.08295873,0.10159727,-0.03478275,-0.07451543,-0.06693531,-0.002874377,0.14214468,0.056845877,0.060820416,-0.108728886,-0.13805847,0.22167757,-0.037277717,-0.045117218,0.056319915,-0.015416959,-0.07585413,0.06340153,0.099213935,0.018849144,0.07590913,-0.045545775,-0.03414175,0.0055366755,0.086253285,0.07252951,-0.13967097,0.04842967,0.00021926012,0.015348414,-0.03633403,0.037912935,0.05503317,-0.02592979,0.11932584,0.006160644,-0.059731193,0.030402202,0.058680445,0.0025712454,0.0007224818,-0.09450484,0.040009797,0.04853768,-0.04578364,0.22926265,-0.09400898,-0.010771047,0.072810926,-0.04103459,0.007345028,-0.050037924,-0.052619923,0.107644744,-0.04489192,0.0010582468,0.0674964,0.016302105,-0.03408228,0.0543483,0.015996015,0.0071189976,0.0590933,-0.020243997,0.116450466,0.09811484,-0.046925075,0.05178749,0.019847767,0.019282265,-0.03757125,-0.01812151,-0.05307368,-0.04122511,0.00061663287,0.06710243,0.10653683,0.08776413,0.057727143,-0.0038645559,0.01932094,-0.032068014,-0.05040614,-0.061871365,-0.07621032,0.0119926445,0.03932047,0.07240788,-0.035573915,-0.028964318,0.052551944,0.5262608,0.06361628,-0.075798005,0.012136473,0.016332509,0.12462808,0.012345325,0.011150611,-0.069745384,-0.11478238,-0.14971885,-0.035167348,0.06325177,0.09028124,0.012706069,0.05958709,0.013338007,-0.017449398,-0.04814147,-0.13839239,-0.02956512,-0.004344301,-0.035456453,-0.051562436,-0.086273454,0.06702981,-0.0037678161,0.0021521142,-0.0097998995,0.001131468,-0.082296155,-0.009926105,-0.045115728,0.09400971,0.05631328,-0.110840574,0.02539937,0.058377255,0.08408435,0.1286273,0.033765018,-0.14570817,-0.022306755,-0.16255459,0.048805058,0.04071601,-0.0031498251,-0.070109226,-0.022349417,-0.046503227,0.1636106,-0.021999361,0.010982469,0.046472184,0.091290265,0.11151512,-0.0789784,0.15201776,-0.04500956,-0.022139588,-0.023977995,-0.037903693,-0.030077608,-0.029366147,0.003505914,0.031686906,-0.049546797,-0.0023664539,-0.004983115,0.031385865,-0.032085367,-0.030980995,-0.04644901,-0.020370726,-0.02178866,-0.10740739,0.021777276,-0.08127271,0.018437516,0.08491816,0.0689488,0.023238797,0.11952977,-0.020260105,0.06962567,0.07164358,-0.10962689,-0.06881246,-0.08406849,0.08021889,0.05220835,-0.11313378,-0.030295629,0.023039462,0.108713575,0.0727205,-0.052780293,0.06291223,0.09605238,-0.07480585,0.18967317,0.0033907157,0.07228672,-0.16722536,-0.045760773,0.004953184,0.08402867,0.058630083,0.019425256,-0.06114262,-0.045413677,-0.032454763,0.0044334973,0.065825894,-0.028213708,0.05512014,0.07655539,-0.13527638,-0.03911036,-0.030212672,0.048325546,0.06274633,0.02009373,-0.004984477,-0.024199538,0.03277735,-0.05128454,-0.0037092615,-0.08020156,0.059221607,0.08955659,0.06826164,0.027944762,0.075713664,0.0120235905,0.031009654,0.11373756,0.0022001925,0.0285329,-0.00097131095,0.24791907,0.062000282,-0.011192192,-0.021274762,0.13300572,-0.005346629,0.03128171,0.016324012,-0.019708956,-0.010060066,-0.023888715,0.05137158,0.018486962,0.068228394,-0.045263775,0.03491036,0.022883888,-0.047094822,0.08339464,0.040693212,-0.002516011,-0.09111794,-0.017759962,0.014257963,-0.036565218,-0.018310482,-0.013234024,-0.008364236,-0.040276233,0.060792048,-0.055441134,0.027854258,-0.02402583,0.07452037,-0.038253423,0.051906954,0.06813806,-0.031749465,-0.03294394,-0.04785206,0.011541747,-0.051018048,-0.0009831685,0.09233344,-0.033277202,-0.015751338,0.030501613,0.093526185,-0.03752559,0.013162727,-0.023140227,-0.033939138,-0.10537198,-0.047483888,0.004166794,0.021313937,-0.05128909,-0.06407709,-0.005342837,-0.052891623,0.18142115,0.046571355,-0.037946045,-0.07461034,-0.03863573,-0.033329487,0.07775452,-0.05523553,-0.033498414,0.05118721,0.048363652,0.037671223,-0.049046658,0.11417833,0.06085274,0.06374032,0.055146378,0.05045221,-0.0060787746,-0.011420563,-0.07447822,-0.022224363,0.024223203,0.053095452,0.09863663,-0.014331285,-0.05824203,0.032371603,0.028200144,-0.04675361,0.011148825,0.012518438,-0.03706028,0.022808047,-0.06591923,0.008531752,0.070152424,0.0061787865,-0.0033781298,-0.028599774,-0.03305956,-0.018763738,0.049151663,-0.06251927,-0.059606533,0.031206988,0.02215938,0.05148011,0.0039509903,0.0020623556,0.07763972,-0.041153554,0.021586545,0.062435806,0.0092179915,-0.057566214,-0.04028872,0.06627505,0.008291666,-0.023509081,0.05658863,-0.009165627,0.069028236,-0.0087194145,-0.087355234,-0.027958423,-0.045105226,0.10858375,-0.00084148423,-0.024560012,-0.017633272,-0.04608129,-0.039471872,-0.023433553,0.13229927,0.04406924,0.10076853,0.07523929,0.0036884565,0.0040873857,-0.009458226,0.111409366,-0.048879933,0.005072249,-0.0788955,0.026994025,0.028831035,0.033917945,0.024485108,-0.0072414884,-0.075974,-0.06674608,0.026520297,0.06193082,0.004384892,-0.069415495,0.04099043,0.24952483,-0.06170825,0.00015961552,0.039506372,0.012512777,0.096418396,-0.0010350498,-0.038654786,0.059279386,0.0634653,-0.016164355,0.07334053,0.06600078,-0.057342917,0.05014999,0.08875012,-0.010675919,-0.00016904257,0.08038283,0.027612597,-0.108750075,-0.07304368,-0.04247222,0.020176211,0.028420873,-0.020671943,-0.03371546,-0.04510995,0.02513073,-0.025215752,0.054750588,-0.015910393,0.02428593,0.03267574,0.118137114,0.01930546,-0.041853573,0.065802194,-0.09640338,-0.03389552,0.03050547,0.0254957,-0.04159259,0.0041301115,-0.025581066,-0.008230773,0.03298131,-0.03566628,0.053689808,0.0025557894,0.037622698,-0.019315522,-0.019170566,-0.12357253,0.0672525,-0.010959669,0.013616016,-0.083198495,-0.06695028,0.044225667,-0.0028334192,0.041927226,0.23210391,-0.008515821,0.05659263,0.06250307,0.029096039,0.019415518,0.017061234,0.09223127,0.00654423,-0.028303642,-0.11589007,0.07760912,0.03035781,-0.106885105,-0.008515048,-0.027252896,-0.06071375,0.06409541,-0.006348565,0.021177676,0.110551,0.05141183,0.06615163,-0.0027107089,-0.017893957,0.12138241,0.05269998,0.015212235,0.002734375,0.005449657,-0.04114744,-0.06823303,3.7230075e-05,-0.06422786,-0.013163575,0.039029803,0.07300956,0.07233427,-0.0057692146,0.11216015,0.0099042,0.011827506,-0.036970254,0.10597657,0.107169576,0.12183342,0.0103958305,0.038584933,-0.017127322,0.03645107,0.19473079,-0.017807378,-0.02343059,-0.06181346,-0.070236094,-0.005674491,-0.041083727,-0.009542603,0.063225195,-0.041292064,0.016018638,0.06262898,0.0008835694,-0.04184404,0.03826739,-7.880315,-0.010775049,-0.08417801,0.023934094,-0.022812458,0.005324867,-0.014550189,0.0029610097,-0.05383082,-0.01177526,0.011727665,0.02643228,-0.025506021,0.04148931,0.030501889,0.045269314,-0.012737865,-0.029649185,-0.104649924,0.02540984,-0.014867384,0.03234493,-0.0020852615,0.11722358,-0.041715533,0.043022346,-0.09020986,-0.07385651,0.072909266,0.033922743,-0.054925054,0.08347872,0.047673136,-0.0017987146,0.061621614,0.10923855,0.05431275,-0.015148638,0.046521153,0.048934735,0.04093266,-0.042875882,0.10807176,0.108277254,0.10562073,-0.02121673,0.01441151,-0.11807449,0.00019749222,-0.0052407156,0.07630671,0.0763507,-0.0053074174,-0.015663031,-0.010155807,-0.07018291,0.02446205,0.13502102,0.006235153,-0.02044485,-0.044361185,-0.00028840784,-0.0049602026,0.093748555,-0.038205724,0.07690937,-0.033693362,-0.12436902,-0.11301436,0.02112375,0.11140987,0.09921922,0.036391344,0.00881348,0.12147593,0.17664513,0.07437361,0.03983773,0.15524524,-0.003260738,0.039610755,0.020689586,-0.010792803,-0.04789346,0.09964344,0.06970893,0.034272123,0.049927805,-0.022570128,0.04039917,0.0758754,-0.08740979,-0.014006541,0.016798329,0.008672266,0.05609813,-0.13744707,0.017701466,-0.011070927,0.08663712,0.027425207,0.02765312,0.03485137,0.0005422545,-0.001548443,-0.04375221,0.013705862,0.03822341,-0.031868078,0.030271798,0.071881235,-0.030327005,-0.014918707,0.025023337,0.074891105,0.0434438,0.0386691,-0.17855552,0.028464144,0.039871152
lcl|KR029087.1_prot_AKF12492.1_6,0.054074567,0.056245536,-0.029741252,0.024259375,-0.10305838,0.02129672,-0.018224502,-0.13415481,0.028616706,-0.02698693,-0.0101774875,-0.038295303,0.16122049,0.12250344,-0.09643734,0.17779051,0.093290456,0.052857097,0.02349002,-0.009702135,-0.01292573,-0.040349994,0.08815753,-0.079729944,-0.0038860778,0.1228896,0.01779889,0.020095233,-0.018304748,-0.149835,-0.0016501744,-0.05180495,0.05429741,-0.0180985,0.03624247,-0.018527083,-0.085350946,0.039853744,-0.067902945,-0.053444013,-0.038912844,-0.020186858,-0.10544853,-0.013805349,-0.0213209,-0.038184967,0.055961356,0.16546996,-0.03957561,-0.1240486,-0.07248724,0.007511602,-0.06923207,-0.032940466,-0.07843406,-0.075281605,0.033810217,0.026095059,0.06915696,-0.03837158,-0.12170389,-0.018405186,-0.078680195,-0.005296704,0.14889829,-0.011519602,-0.03641214,0.012724415,0.0041119745,-0.08036997,-0.06386996,-0.15979525,-0.05416708,-0.09128635,0.089956865,0.00078550243,-0.0364955,0.05460259,0.041082773,0.016762951,-0.01912949,-0.028595826,-0.02137856,0.06927613,-0.0075343945,-0.028551195,0.12041291,0.15562928,-0.079097115,-0.091192275,-0.0093478225,0.011705714,0.046140704,0.022636473,-0.047578968,0.0047736624,0.026480103,0.10072917,0.07122614,0.024094522,-0.08850966,-0.007958274,0.06986505,-0.027775247,0.024421437,-0.045203038,0.0033796886,0.031433325,-0.008393007,0.01834207,0.031814348,0.08499852,0.0008010632,0.104993865,0.060029592,0.031025536,-0.058622476,-0.048499204,0.028468229,0.09187307,-0.08503587,0.047978576,0.08251087,-0.063187346,0.06139775,-0.045186788,0.0858914,0.009768715,0.0114675425,0.015724288,0.02972937,-0.02352534,-0.036597233,0.017752314,0.01614289,0.03754935,0.04989966,0.12735628,0.042581353,0.07275431,0.043417804,0.0074716685,0.03221713,0.019434476,-0.03435742,0.09411415,0.015860524,0.0077823857,-0.044460904,-0.006748472,-0.032539226,-0.056902632,0.048374813,-0.013866872,-0.034064,-0.05337085,0.0014427304,0.050331745,0.042355895,-0.019818112,-0.050128553,0.06546008,0.02802344,-0.06700616,0.054688346,-0.00773076,0.03822903,0.025534427,0.107526384,0.005042692,-0.08100092,0.027598899,0.09976714,-0.010247373,0.036911946,0.06469831,-0.07594242,0.1071876,0.15960997,0.057947244,-0.00942562,-0.05172607,0.08643147,0.091182865,0.034355544,0.012710019,-0.06549541,-0.030642247,0.0510248,-0.12330586,0.08513741,0.09668721,-0.03285751,0.0053143795,0.04529215,0.09346151,-0.019384073,0.06322177,-0.005219013,0.04212468,-0.0012886669,0.059847068,-0.019376919,0.0075131375,-0.07820146,0.016852811,-0.05780667,-0.06705574,-0.101653054,-0.15158182,0.12538588,0.012305032,-0.038251225,-0.016572248,-0.08314798,-0.031341456,0.048896812,-0.03321104,0.13946527,-0.024858551,-0.00067546876,-0.010513725,-0.040118773,0.01178912,0.02263792,-0.06353897,0.03321347,0.019206174,-0.12034459,-0.006099405,0.17089668,0.082407966,-0.07212111,-0.037747208,-1.1080484,-0.030462615,0.14287119,0.04812979,-0.04685526,-0.05384884,0.064312205,0.038058937,0.093419686,0.09805333,-0.06899054,0.05966331,0.0043455497,0.06392423,0.10436214,0.120578684,-0.011633305,0.0068077086,0.011268114,0.06961319,0.0537429,-0.0060463944,-0.057741307,-0.023426518,-0.017879982,-0.09631319,0.11172226,0.016098397,-0.08666471,0.18442132,-0.058627732,-0.08975698,-0.066253394,-0.0689543,-0.01036165,0.06028544,0.020113861,0.0038294573,-0.057024583,-0.00055828557,0.012374497,0.009504138,-0.07609358,-0.019184921,0.03596806,-0.070627,0.025181497,0.007865629,-0.035491202,0.06607965,-0.034191236,-0.066448994,-0.039116815,0.08930208,0.12543036,0.011136964,0.106435835,-0.005204575,-0.066923805,-0.10179911,-0.14297594,0.12846705,0.017003404,0.044023883,0.17577073,0.03322539,0.084199145,0.06537772,0.007946609,0.023670394,0.07818675,0.02679437,-0.020298144,0.0712896,0.010930049,-0.08332804,-0.025784038,0.04545361,-0.07757626,0.023134694,-0.003941719,0.049857672,0.03639299,-0.05068329,-0.14906189,0.04444232,-0.044587247,-0.017398654,-0.042845473,0.10323247,-0.094939075,-0.09373547,0.054095212,0.008755346,-0.090962365,0.07047359,0.03839685,-0.05506942,-0.014598365,0.010836565,-0.16463895,-0.006167061,0.13021043,0.0072968025,0.10704595,0.038154084,0.004640575,-0.044598043,-0.10647907,0.07468242,-0.013413949,0.010557934,-0.10207169,0.07468232,0.11474355,0.031395152,0.049774054,-0.060494334,-0.03926799,-0.10980305,0.06708898,-0.0511081,-0.0016882598,-0.019414777,0.014966383,0.008054556,-0.043636505,0.052144133,-0.0109425755,-0.04043714,0.01898961,0.03640984,-0.010042867,-0.051394336,0.034906887,0.066146076,0.10372522,-0.036104474,0.020300759,-0.011954521,0.07950717,0.13080084,0.05670033,0.046877258,0.23807147,0.028476458,-0.02599545,-0.13563035,-0.035050616,0.13450885,-0.006841802,0.028222213,-0.005954191,-0.061379615,0.08817816,-0.04187939,-0.039220534,-0.0016787491,0.05553747,0.06355416,-0.048185572,-0.016269343,0.06644291,0.09224648,0.018143011,-0.023187142,0.016812371,-0.080905005,-0.1399497,0.06811304,0.022135766,-0.014137071,0.037527893,-0.011562812,0.045043446,-0.19513857,0.034941737,-0.040333495,-0.032224253,-0.07269182,-0.083770014,0.022403805,0.08702199,0.09822316,0.023589961,-0.0036255799,0.015102891,0.062965676,0.011080315,0.022135764,-0.032312933,-0.11601357,0.06805738,0.021736303,0.021534776,0.000415021,0.079860985,0.0067479354,-0.0019742742,-0.072626986,0.077261895,-0.077234104,0.07853128,-0.049180027,-0.06582329,-0.048877314,0.047227945,0.061987527,-0.004640217,-0.18821411,0.12995742,-0.08185347,-0.0006956156,0.07383421,0.06611254,-0.07145683,0.068567,-0.07506733,0.05548563,0.0050127604,-0.04056928,0.041013885,0.010676944,-0.029111294,0.025053473,0.05118905,-0.0071425466,-0.031214185,-0.023109343,0.07224271,0.017345052,-0.026749872,0.15311594,0.084358975,0.05042065,0.06138827,-0.059091415,0.017732373,0.044060443,-0.024347449,0.023598231,-0.115342,-0.06504663,-0.14669101,-0.025065478,-0.021768907,0.05217355,-0.009003131,-0.07080979,0.16525832,0.07586009,0.11657249,-0.00829818,0.01115003,0.07399834,-0.011606889,-0.05463423,0.042116,-0.017041806,-0.029525427,-0.048589535,0.10354905,0.060808666,-0.00788636,-0.048690204,-0.014279673,0.100226395,-0.090617545,-0.08117563,0.041884813,-0.011254947,-0.008376527,-0.028801791,0.13522905,-0.054482117,0.16708447,-0.08500657,-0.092270546,0.014685331,-0.05761724,-0.012661518,0.018975938,-0.11715302,-0.12370561,0.0017991719,-0.1547002,-0.02587018,-0.1267238,0.011115845,0.014105192,-0.06378199,-0.1419745,0.15894452,0.022418575,-0.044272225,0.013055333,-0.018600576,0.06567764,0.071233094,-0.077334434,-0.006581491,0.02907571,0.01854148,-0.007938506,-0.0939956,-0.034905355,-0.03064452,-0.022651225,-0.017631637,0.14296168,0.10004147,-0.015603367,0.04338502,-0.06392526,0.030327678,-0.053328697,0.075421885,0.05773367,-0.10046642,0.16407146,0.06795754,-0.05990804,-0.1107206,-0.025047712,-0.00065192406,0.0979359,-0.0085277,0.04364187,0.028505757,-0.0836995,0.12877007,-0.0071451003,-0.059115387,0.0053783446,-0.05723701,0.08666441,0.023338484,0.23707928,-0.01628846,-0.0034095023,0.0079147555,0.18921079,0.08590386,0.074901454,0.06802975,0.0279241,-0.02408926,-0.0371047,0.120393276,0.34523296,-0.016368119,0.036691535,-0.052740064,-0.012447699,-0.017926447,0.13422458,-0.037988298,-0.032599542,-0.015898399,0.00130556,0.082585335,0.029828997,-0.08484364,0.057059836,0.13535967,-0.092749484,-0.040116638,-0.01722242,-0.054204576,-0.06285313,-0.037718795,0.030455127,-0.05072971,-0.059192967,-0.12949795,0.021804431,0.023446785,-0.013237201,-0.053572036,0.035530463,-0.027636249,-0.0045417487,0.026086997,0.05728035,-0.059356928,-0.046679728,-0.06337466,0.041425224,-0.033067647,-0.004676379,-0.040263653,0.20117913,0.025752025,-0.033135563,0.076535136,0.06398769,-0.04150608,-0.009081101,0.053797685,-0.061164737,-0.09240688,0.035803508,0.04101217,0.012734306,-0.05474845,-0.023184543,-0.024167104,-0.041049954,0.16075502,0.0553334,-0.07729141,0.01373101,0.060440864,0.11162841,-0.028950397,-0.058780603,-0.0142706195,0.0928649,0.070117414,0.11767205,0.02659538,-0.040713493,0.052761093,0.033261318,0.056787707,0.08278882,-0.05760347,-0.018167092,0.12554456,0.052101396,0.029362714,-0.017820101,-0.066518106,-0.044405714,0.00071047817,-0.06025559,-0.018426308,-0.05414034,-0.06588163,0.07570519,-0.022882052,-0.10916069,0.012263126,-0.010666521,0.027465349,-0.056276545,0.03367668,0.047109377,0.012892721,0.11333058,-0.06173901,-0.018790316,0.034462806,0.06380442,0.0744113,-0.041637626,-0.073992126,-0.027978582,0.007653892,-0.053868014,0.032375745,0.0030750616,-0.017256215,-0.13579762,0.1533038,-0.133162,0.08822614,0.05071899,0.13070878,-0.018631335,0.038179677,0.014722922,0.047494944,-0.034689613,0.06552442,0.14995508,-0.045928165,-0.08023834,-0.008385588,-0.05201148,0.031881977,-0.059659466,-0.035994124,0.00772624,-0.032759245,0.07005936,0.019416519,0.021969585,0.09855494,-0.0016305035,-0.037752923,-0.03146835,-0.015461119,0.09554404,0.019828545,0.06535957,-0.0063984776,0.08083791,0.07490934,-0.045637053,-0.010529663,0.051409323,0.40211713,0.030965678,-0.08640814,0.052511144,0.03829688,-0.09359104,0.051315818,-0.017308028,-0.006069396,-0.13205996,0.010230207,0.0012741238,0.10558482,0.029887132,0.025532113,0.16173321,0.026969941,-0.009647919,-0.08359069,-0.11849936,0.07446075,-0.06548224,-0.036584526,-0.071280256,-0.23578551,0.11349517,0.03193414,-0.040583167,-0.043265257,0.02164084,-0.070749134,-0.09873791,-0.00242256,0.11668868,0.099681005,-0.043606337,-0.1239443,0.055112008,0.0014441246,0.09998661,0.025371762,-0.042111117,0.013043259,-0.14035152,-0.12629615,0.038594197,0.0020829323,-0.15715703,-0.041887138,-0.00960773,0.18287951,-0.01796191,0.0064597456,0.03340531,0.12000618,0.07477958,-0.05431831,0.13429762,-0.017970124,-0.06940398,0.041205294,0.058690753,0.001075267,0.06327907,-0.0019142339,0.049510557,-0.062089887,-0.061521966,-0.06142988,0.0034025812,0.021597613,-0.051359795,-0.07707324,-0.022779262,-0.11561865,-0.10361351,0.0073255626,-0.08154926,-0.03910503,0.089675374,0.078560345,-0.08715791,0.039147504,0.045050453,0.08491084,-0.0019655505,0.0041920636,-0.097196214,-0.038792416,-0.026754884,0.015175011,-0.12360817,-0.10763473,0.079328775,0.015541472,0.027380772,-0.0043447437,0.030683413,0.006227851,0.06816249,0.13363025,-0.05525912,0.0101633025,-0.079449356,-0.08380155,0.020175142,-0.022272352,0.09106471,0.049366307,0.020811804,-0.032090474,0.046135075,0.0174778,0.07012107,-0.0007412416,-0.13582216,0.077190064,0.004500123,0.05005745,-0.036610156,0.14502741,0.109385334,0.039401975,-0.003734398,-0.025423335,-0.010610129,0.07249601,-0.04430516,-0.110465474,-0.00019445841,0.04577004,-0.014294759,-0.057199005,0.09829722,0.035473082,0.09977518,0.196845,0.055784106,-0.074925244,0.01862665,0.023467211,-0.016174885,0.033439144,-0.040622164,0.123052135,-0.046728455,0.0840876,-0.026025016,-0.07701314,-0.049872436,-0.053996146,-0.110136196,-0.10204124,0.023564056,-0.06365558,-0.0707665,-0.0074277204,0.14127995,0.014936859,0.06653315,0.03780229,-0.16598688,-0.01159633,0.12448497,-0.08731483,-0.14392065,-0.024286099,0.024073489,0.016228313,0.1639508,0.026470225,-0.049381103,-0.0953983,-0.004448353,-0.0711304,0.054273073,-0.03074956,-0.05430127,0.015000576,0.07533418,0.009050066,0.021084158,0.005148313,0.07382277,0.025345707,-5.947974e-06,0.028440436,0.066979855,0.04915072,-0.060581166,-0.022283249,0.014102359,-0.0057641473,0.052892532,0.07129928,-0.14767621,0.042828415,-0.13125454,-0.0850268,-0.056331415,0.03953089,0.16054124,0.039708488,0.030307388,-0.05982383,0.042375468,0.15213647,-0.00073070783,-0.029132377,-0.050310016,0.07747856,0.048605397,-0.08331882,0.0013959921,0.16485369,-0.013682353,0.029872319,0.049500797,-0.0432321,-0.04248915,-0.14842749,-0.10319562,-0.13111082,-0.11165731,0.07974228,0.015272414,-0.056409314,-0.013081271,0.11042131,-0.0010610766,-0.00064734236,-0.09202667,0.049236804,0.01776997,-0.08265673,0.05034735,0.15260457,-0.013863271,-0.041511256,-0.03567382,-0.019486804,-0.057356443,0.048728336,-0.058643013,-0.076441884,-0.10201878,-0.06716895,0.004171535,0.03784632,0.007295661,0.00027553606,-0.012205016,-0.050937917,0.07162822,0.06680186,-0.083120264,0.07929691,-0.042418502,-0.05621201,-0.04647353,-0.06452329,-0.022659186,0.028105475,0.019044708,-0.120555624,-0.06928593,-0.034203492,-0.00420195,-0.076588675,0.039654676,-0.060410652,-0.024700627,0.025357503,-0.036243215,0.13885514,0.031619586,0.08137215,-0.018067408,0.06292488,0.13289143,-0.044227038,0.08945015,0.04596201,0.013526356,-0.025393356,-0.039997574,0.0064847604,0.096912004,0.12353889,-0.115199,-0.05336111,-0.052082356,-0.034441885,-0.02193998,-0.073383905,-0.017084006,0.080210626,0.06464009,-0.05232529,0.04809412,0.0823637,-0.06402881,-0.06502155,-0.045935772,-0.080255434,-0.048036154,0.0901595,0.082258366,0.046367493,-0.06879225,-0.040320363,0.026517581,0.1711864,0.02842801,-0.023386717,-0.0425798,0.11119129,0.06343508,-0.052828304,0.07794359,0.010125329,-0.021219958,-0.087872505,0.057085786,-0.049434524,0.09572197,0.000819355,0.045231383,-0.0014149122,0.05528581,-0.0011041156,0.09114369,0.040904224,-0.00618526,0.020455712,-0.052017972,0.0377753,0.059031066,0.033787724,-0.0244081,-0.022777623,0.07210256,-0.08159966,0.009909067,-0.039796926,-0.04938547,-0.123539925,-0.023209522,0.072818644,-0.047504976,0.036381792,0.05131769,0.069743946,0.033067886,-0.17369488,0.005683133,0.12576446,-0.07196805,0.06706835,0.15770979,-0.063021265,0.0023552116,0.08303258,0.09710148,-0.051703632,-0.023389708,0.12670586,-0.055418205,-0.06553748,-0.022858258,-0.0011683819,-0.0026874042,0.059016857,-0.07275673,-0.087087,0.037500355,0.00049833645,0.008375575,0.06176366,0.07556854,0.051629234,0.031725056,-0.034910306,-0.15677962,0.087987565,-0.06359779,-0.044635836,-0.16487204,0.01556161,0.044159114,-0.10262663,0.071876355,0.04613568,-0.13413167,-0.03128164,-0.02430142,0.008333005,0.16458224,-0.16679643,-0.14649102,-0.0485261,-0.02336182,0.05495447,-0.013934396,0.0035876075,0.07958005,-0.13455307,-0.050322466,-0.09924402,0.10680202,0.07288676,-0.053962983,0.021273553,0.0006694846,0.015690025,-0.017251141,-0.056586202,-0.010668597,-0.07880678,-0.011244971,0.009067182,0.00411883,-0.03981114,0.080873184,-6.500099,-0.0964249,0.11242086,-0.06665363,0.011634418,-0.006568978,-0.060226187,-0.030158615,0.05186319,-0.029210582,-0.018816534,0.063891985,0.034656942,-0.008945975,0.040960282,0.053631917,-0.022831248,0.0283228,-0.027394276,0.049986515,-0.098449685,0.0074701416,-0.014191282,0.2003207,-0.04671042,-0.029981986,0.012126186,-0.05839695,0.0489334,0.15868302,0.040748484,0.07091398,-0.10171755,0.18910417,0.051309533,0.13832127,-0.021742053,-0.009984016,0.1023289,-0.0029931085,0.09274825,-0.075316496,-0.029768446,0.091250755,0.13053282,0.07037503,0.03124936,-0.07910838,-0.025558066,-0.008414482,0.08980026,0.03697594,0.045434356,-0.08426347,0.006964671,-0.06718592,0.041011732,0.07099871,0.022589043,0.009473701,0.04905129,0.048933316,0.027304666,0.09718949,-0.09047674,0.1255703,0.039371245,-0.07909247,0.013741211,-0.049623594,-0.10109492,-0.020574654,0.014809556,0.30426106,0.12014135,0.07273043,0.076183476,-0.030906832,0.06785522,0.030325497,-0.110766396,-0.032416258,-0.08203337,-0.038245827,-0.073855005,0.05328141,0.112696484,0.059209235,-0.027840491,0.11684896,0.10858136,-0.040114522,-0.00074069353,-0.0082681915,-0.024350686,0.0659301,0.008272455,0.031574946,-0.013470869,0.08784896,0.019148938,0.07672021,-0.0018313259,0.081407025,0.08861125,-0.013415899,0.020064887,-0.0016772765,-0.08540407,-0.03567481,0.020843808,-0.0831259,-0.050063748,-0.0056767026,0.039393615,0.059806157,0.06604284,-0.09170745,-0.035175357,0.14270878
